2180 100
如何 -0.0360021 0.0410619 -0.375383 0.070233 0.23301 0.163273 0.100347 -0.216812 -0.164428 -0.0285242 0.00331751 0.0445296 0.139625 0.217083 -0.153912 -0.0684643 0.170169 0.0366546 0.104786 0.123856 -0.158001 -0.032448 0.0714388 0.237239 -0.168653 0.107715 -0.06883 -0.169395 0.0682699 0.03981 -0.134286 -0.0886383 -0.0978286 -0.111743 0.0547295 -0.145606 -0.14542 -0.149206 -0.0422625 -0.0931733 -0.0107258 0.255738 -0.0109646 -0.220614 -0.020439 -0.228782 0.0516565 0.177188 -0.147197 0.260354 0.20554 0.136567 -0.189694 -0.0531026 -0.0788273 0.16048 0.235884 -0.11782 -0.0216067 -0.0252981 -0.0736974 -0.278355 -0.0592172 0.033447 0.0502827 0.17298 0.101184 0.177422 -0.00417914 0.0732871 0.214333 -0.00250176 0.14593 0.00700767 -0.107605 -0.0664006 -0.0745464 -0.112546 -0.199343 -0.312752 0.0465244 0.0729702 0.109353 0.0413649 0.112041 0.0406876 0.32071 -0.134169 -0.262919 0.165472 0.147639 -0.160476 0.0444626 -0.36875 0.139108 -0.028732 0.317847 -0.155482 0.000370567 0.0895721
装逼 -0.00437581 0.0487117 -0.342636 0.0661625 0.301259 0.296626 0.0123641 -0.239342 -0.249066 0.0827885 0.112957 0.111263 0.248575 0.295478 -0.0588771 -0.0417441 0.147634 0.0703641 0.0206128 0.019296 -0.119675 -0.172134 0.0766355 0.220862 -0.126511 0.0123301 -0.0270189 -0.143647 -0.0370244 0.0634995 -0.089981 -0.0646817 -0.0987599 -0.0636371 0.0137505 -0.132392 -0.0320535 -0.157588 -0.00890166 -0.0750156 -0.0465238 0.179842 0.0207131 -0.202897 0.00652508 -0.126904 0.143813 0.230533 -0.0414447 0.248648 0.2361 0.132518 -0.238804 -0.154751 -0.0981047 0.103214 0.212124 -0.0565781 0.0163994 -0.0652813 -0.152152 -0.269546 -0.03156 -0.0756935 0.0438531 0.316057 0.115432 0.0898514 -0.0701789 0.070112 0.152036 -0.0356065 0.18293 0.0294335 -0.00395111 -0.0970478 -0.10328 0.0129972 -0.151156 -0.217418 0.0114278 0.0859418 0.156226 0.0432467 0.11847 0.0203995 0.419653 -0.188544 -0.311377 0.176197 0.165694 -0.176648 -0.0129891 -0.244238 0.241734 0.000749644 0.444431 -0.138382 -0.111106 0.095492
装 0.146313 0.101399 -0.358173 0.118597 0.241213 0.212116 0.12026 -0.0446889 -0.153947 0.118751 0.0712563 0.0430539 0.159459 0.229692 0.0678817 -0.113525 0.189314 0.145806 0.0158583 0.0662257 -0.185988 -0.069022 0.102971 0.163747 -0.103845 0.0631889 0.04258 -0.234776 0.193249 0.145569 0.00176311 0.0592914 0.070464 -0.164874 0.0644726 -0.038272 -0.148209 -0.0222294 0.131866 -0.222493 0.0815555 0.435206 0.0142367 -0.2002 0.0259455 -0.14644 0.130294 -0.00924742 -0.0231066 0.175015 0.211622 0.0496963 -0.190953 -0.0442929 -0.0956687 0.152827 0.247237 -0.0461847 0.0886407 0.144184 -0.0895416 -0.330147 0.0117542 -0.051976 0.110742 0.19989 0.0122657 -0.107391 -0.00519652 0.0524485 0.193107 -0.0375925 0.0449412 -0.240349 -0.0702499 0.0424137 -0.11082 -0.128541 -0.105349 -0.107064 0.0678059 0.0711835 -0.0503375 -0.0353848 0.069299 0.0339283 0.111402 -0.221408 -0.170325 0.212838 0.279421 -0.255014 -0.0956351 -0.241496 0.0319794 -0.113707 0.169054 -0.213827 0.186689 0.149424
得 -0.034352 0.00481222 -0.40283 -0.149692 0.053705 0.0523715 0.0236939 -0.0955273 -0.218483 -0.0164744 -0.196581 0.0623826 0.164025 0.385799 -0.149995 -0.119272 0.194468 0.0571803 0.0130789 0.0231424 -0.141557 -0.0421789 0.115018 0.323163 -0.185464 0.0839307 -0.0987868 -0.14358 -0.0288133 0.106897 -0.0923123 -0.103563 -0.234201 0.038934 -0.0634812 -0.0911516 -0.0874529 -0.168524 -0.0607855 -0.0750684 0.00638587 0.151027 -0.0887337 -0.101992 0.0526983 -0.181019 0.225576 0.158554 -0.241568 0.185334 0.159509 0.202352 -0.155261 -0.0348768 -0.165878 0.115551 0.217284 -0.120027 -0.0346889 -0.0213121 -0.0441536 -0.388338 -0.167224 -0.117264 0.169429 0.26255 0.214517 -0.015093 -0.071888 -0.0732364 0.344172 -0.0432059 0.174397 0.107865 -0.0584022 -0.20255 -0.0941682 -0.154545 -0.304734 -0.35074 0.0751952 -0.0313232 0.232328 0.0791574 0.183953 -0.0296405 0.45064 -0.167834 -0.368188 0.106888 0.192854 -0.208195 -0.0394077 -0.230523 0.279176 -0.0337722 0.447827 -0.204692 -0.110603 -0.00934904
别人 0.00818099 -0.022437 -0.423802 0.110431 0.184688 -0.00417601 0.108717 -0.265366 -0.0113506 -0.115787 0.132356 -0.0150121 0.234547 0.299161 -0.142535 -0.133355 0.334209 0.109952 0.168148 0.0762091 -0.156566 -0.216755 -0.034299 0.151448 0.00165275 0.180935 0.192178 -0.143001 0.0646456 -0.0411358 -0.0504888 -0.0627426 -0.0258546 -0.15499 0.290481 -0.173452 -0.0503105 -0.0479611 0.028492 -0.160628 -0.0497311 0.345762 -0.0465208 -0.392693 0.0269061 -0.141925 0.0523968 0.345953 0.297821 0.224213 0.245766 0.104508 -0.314841 -0.167146 -0.130787 0.108423 0.255289 -0.0647873 0.00653595 -0.00489018 -0.104867 -0.198545 0.0261579 -0.0125219 0.0392569 0.390314 0.0717348 0.232285 -0.0210277 0.130684 0.158379 -0.0454357 0.190148 0.0131144 -0.0330292 -0.042193 -0.0401977 0.0443623 -0.0816758 -0.0959628 -0.0378115 0.0949239 0.0388275 0.00635263 0.103344 0.0845455 0.380027 -0.188648 -0.355279 0.296063 0.0573801 -0.202119 -0.069972 -0.447719 0.141896 0.063037 0.285512 -0.142203 -0.10508 0.0561596
一 0.0251177 0.173536 -0.300453 0.261783 0.0956932 0.617628 -0.367796 -0.143236 -0.11669 0.150734 0.104995 0.161661 -0.037602 0.170527 0.156407 -0.0919259 0.150609 0.225902 -0.130671 -0.0351758 -0.170861 -0.148793 0.195862 0.0383798 -0.538337 0.150213 -0.446126 -0.0711739 -0.0203416 0.145163 -0.101621 -0.0335236 -0.0593517 -0.307157 -0.156368 -0.0951705 -0.0241028 -0.147592 0.0800317 -0.25672 0.0594987 0.403373 -0.0266255 -0.135028 -0.0135557 -0.280863 0.0684122 0.181732 -0.36313 0.26387 0.209253 0.257304 -0.115887 -0.0718678 -0.148181 0.24453 0.165383 -0.276209 -0.0791523 0.097645 -0.106388 -0.456278 0.107798 -0.0423996 0.0700739 -0.0674799 -0.033411 0.195743 -0.233085 0.0465958 0.0453366 0.0650377 0.0353055 0.085972 -0.18943 0.124996 -0.136389 -0.188132 -0.253678 -0.187514 -0.100682 0.123284 0.139081 0.0238878 -0.178675 -0.0563923 0.182497 9.98827e-05 -0.00773731 -0.104911 0.24132 -0.195504 -0.108733 -0.124368 0.138894 0.114491 0.149598 -0.202535 0.310669 0.115316
的 -0.0409786 0.044157 -0.538849 -0.00252679 0.170563 -0.0954965 0.145452 -0.079427 -0.163013 -0.0771237 -0.0643026 -0.0921883 0.241312 0.399581 -0.138836 0.021757 0.259113 0.00547256 0.0940392 0.0237828 -0.138667 -0.132207 0.0283629 0.154469 -0.0972104 0.171654 0.137294 -0.0865166 0.00400501 0.0156683 -0.103344 -0.173513 -0.112384 0.00239692 0.180659 -0.0743811 -0.165732 -0.163435 -0.0910424 -0.118392 -0.142692 0.278604 -0.0294846 -0.206985 0.00932433 -0.149435 0.10766 0.336676 0.0245082 0.244202 0.0367642 0.109526 -0.301517 -0.0723588 -0.135743 0.155633 0.272318 -0.130116 -0.00531135 -0.00136787 -0.089989 -0.313348 -0.0608628 0.0176319 0.070502 0.35333 0.20923 0.125888 -0.0376326 0.1115 0.308528 -0.0394206 0.234679 0.00947897 -0.0499578 -0.207834 -0.142143 -0.0387924 -0.151065 -0.318205 0.0199821 0.0336642 0.187124 0.0895861 0.268163 -0.0177525 0.434131 -0.175241 -0.350146 0.368223 0.182948 -0.0278793 -0.1013 -0.29844 0.221316 -0.0617529 0.461923 -0.21642 -0.154546 0.0531783
？ 0.152439 0.115786 -0.49663 0.23706 0.243757 0.187153 0.137451 -0.0411538 -0.15284 0.137939 -0.150473 0.0440226 0.306242 0.13108 -0.00259113 -0.0357101 0.117662 0.073798 0.0690513 0.139166 -0.0615219 0.0448379 0.168775 0.296918 -0.0747246 0.0739681 -0.0199239 -0.304953 0.179707 0.264343 -0.0339747 0.0817664 -0.0561179 -0.20128 -0.0572458 -0.0839253 -0.212352 -0.123364 0.0525435 -0.205203 0.178643 0.344918 -0.0283823 -0.203133 0.0442133 -0.068355 0.189047 -0.0653754 -0.0892108 0.203909 0.256133 0.108211 0.00510013 0.020843 -0.172478 0.126284 0.240057 -0.0461191 0.119283 0.0403047 -0.113895 -0.337965 -0.027796 -0.1689 0.0971045 0.162333 -0.01299 -0.0901133 0.0040839 0.0215074 0.221132 0.0320607 0.120204 -0.254364 -0.139852 -0.145127 -0.0835484 -0.188768 -0.0831401 -0.166546 0.0959819 0.0599329 -0.0143888 -0.0251928 0.155855 0.0433648 0.198726 -0.292031 -0.393744 0.205507 0.229348 -0.374385 -0.0590617 -0.244471 0.0650488 -0.149571 0.141869 -0.158563 0.130493 0.0251149
你 0.0592366 0.143434 -0.293957 0.404061 0.362884 0.300029 0.00360089 -0.159957 -0.0729547 0.182564 0.00121918 0.125954 0.370082 0.0197603 0.0395998 -0.182426 0.302097 0.112267 0.0485421 -0.0370828 0.0301842 -0.168488 0.184477 0.316771 -0.0729211 -0.0967321 -0.0757332 -0.314585 0.142082 0.165063 -0.189816 0.201417 -0.0333731 -0.414077 -0.134077 -0.198063 0.0140707 -0.191944 0.118766 -0.24019 0.276595 0.281997 -0.0477683 -0.337161 0.0265846 -0.0369256 0.172773 -0.048 0.0920055 0.162277 0.475879 0.256538 0.0451137 -0.10209 -0.227229 0.0789504 0.228613 -0.00509346 0.144882 -0.0308014 -0.152398 -0.25564 3.34022e-05 -0.19889 -0.0108149 0.228436 -0.0271258 0.0386373 -0.0873759 -0.0377489 0.156809 0.0118429 0.0699856 -0.242597 0.0254396 -0.10627 -0.0580826 -0.191218 0.00606724 0.103454 0.042793 0.178787 -0.0301927 -0.0885634 0.0145449 0.0454112 0.179441 -0.286561 -0.463206 0.129176 0.182422 -0.451803 0.0185969 -0.239026 -0.0517743 -0.00927084 0.123705 -0.151019 0.0770105 0.00322876
拥有 -0.0459452 0.141825 -0.23148 -0.00806805 0.128454 0.337407 -0.153659 -0.205479 -0.101234 0.0364607 0.103412 0.0227158 0.181027 0.343846 -0.00703542 -0.168971 0.212625 0.153435 -0.0350156 -0.0649759 -0.0912046 -0.197234 0.120733 0.229302 -0.188585 -0.0217595 -0.0892714 -0.145229 0.117335 0.125345 -0.0949069 -0.0614486 -0.0791382 -0.217673 -0.0333808 -0.124063 0.0481272 -0.0852811 0.0447599 -0.07379 -0.0162566 0.167237 -0.0410034 -0.166956 0.0583136 -0.271401 0.115645 0.124622 -0.0598156 0.0969297 0.235141 0.14378 -0.279263 -0.188726 -0.124627 0.11159 0.166562 -0.08147 0.0653878 0.12398 -0.144581 -0.379287 -0.100584 -0.0852194 0.0647018 0.290347 0.153675 0.0625955 -0.0505679 0.00743507 0.215926 -0.0681745 0.0920984 -0.031762 0.00213691 0.029963 -0.070671 -0.140246 -0.168411 -0.0974861 -0.00530427 0.0339961 0.084807 -0.0010393 0.0567548 -0.00283806 0.40241 -0.0613054 -0.213636 0.0923147 0.286036 -0.19285 -0.0966283 -0.181111 0.26763 0.0568524 0.334565 -0.17234 0.0516783 0.0645602
哪些 0.0587801 -0.064001 -0.798894 0.108428 0.0904162 -0.207379 0.0297726 -0.115109 -0.0929326 0.0437541 0.0662777 -0.0866763 0.269922 0.276575 -0.0218909 0.0255872 0.242012 0.167847 0.0730489 0.0499292 -0.131875 -0.305209 0.104986 0.08423 -0.0560468 0.413029 0.178822 -0.209251 -0.0953538 0.0791497 0.120471 -0.0229398 -0.192534 0.0821477 0.213617 -0.271439 0.0281108 -0.259955 0.0877934 -0.045985 -0.13134 0.427255 -0.0547995 -0.196432 0.00315938 -0.112681 0.284468 0.391633 0.0851028 0.339987 0.257261 0.131302 -0.167516 -0.267263 -0.0688805 0.225023 0.231386 -0.12653 -0.134059 -0.010566 -0.117497 -0.397634 0.0742698 -0.318959 0.0595387 0.243145 -0.0010096 -0.165547 -0.292773 0.0563878 0.198367 -0.0709576 0.263286 0.0847811 -0.0839778 -0.241053 0.0057823 0.0526596 -0.0405814 -0.236564 -0.0912299 0.147745 0.127548 0.0350278 0.0416774 -0.0397509 0.246717 -0.333661 -0.541803 0.344328 0.064369 -0.0964294 -0.224719 -0.275649 0.114822 -0.172869 0.318997 -0.403333 -0.123758 -0.0238411
为什么 0.0571356 0.103508 -0.335009 0.160799 0.166297 0.146499 0.112424 -0.0766771 -0.139744 -0.0393877 -0.0542784 -0.00916046 0.250719 0.260228 -0.0135259 -0.0464437 0.261146 0.0292333 0.0989813 0.129368 -0.0261344 0.0266149 0.122921 0.276137 -0.0851859 -0.0150764 -0.0187311 -0.180388 0.200533 0.211853 -0.100572 0.00861915 0.0132927 -0.227292 0.00520546 -0.0639821 -0.180861 -0.129947 0.033883 -0.14633 0.134871 0.333253 -0.0558034 -0.259204 0.0453156 -0.16911 0.141568 0.0991504 -0.074232 0.187938 0.155641 0.12626 -0.0823904 -0.0311937 -0.185828 0.18715 0.207385 -0.0431196 0.0885022 0.0229407 -0.122485 -0.305286 -0.0660596 -0.0841541 0.11511 0.291202 0.0431105 0.0950567 -0.0192627 0.0363674 0.197322 0.0350913 0.112172 -0.14747 -0.0970487 -0.042981 -0.12011 -0.168437 -0.13799 -0.171165 0.0646473 0.0358458 0.0115774 0.0387472 0.212629 0.0749564 0.325185 -0.176643 -0.344177 0.222505 0.240558 -0.325571 -0.0210971 -0.278717 0.153781 -0.0431492 0.250569 -0.0685229 0.134904 0.06603
时候 0.0599124 0.0398976 -0.365092 0.297803 0.269125 -0.0847768 0.184049 -0.314338 0.0596114 -0.160852 0.338043 -0.0141383 0.360609 0.379894 -0.0480079 -0.0137475 0.462402 0.0747547 0.159232 -0.0931747 -0.215164 -0.48159 0.00878434 0.067039 -0.0659489 0.0933618 0.162036 -0.0871488 -0.038321 -0.120884 -0.14481 -0.175628 0.0208078 -0.232312 0.330544 -0.250994 0.0305779 -0.131324 -0.00163786 -0.140047 -0.168423 0.372649 0.020873 -0.488063 -5.43205e-05 -0.112722 -0.0136001 0.586401 0.348083 0.327524 0.34091 0.144861 -0.488916 -0.254897 -0.0624022 0.182767 0.309672 0.000643464 -0.00135299 -0.0765692 -0.105014 -0.131327 0.064195 0.0200962 -0.0552889 0.423717 0.123276 0.381349 -0.0757423 0.136652 0.148479 -0.0257572 0.309469 0.039061 0.0162968 -0.076116 -0.0683002 0.0899774 0.0683667 -0.0562976 -0.122073 0.141853 0.182234 -0.0266901 0.0190061 -0.0157413 0.40619 -0.18934 -0.360286 0.46768 0.144118 0.0849071 -0.0232707 -0.415379 0.0597513 0.134682 0.320852 -0.238993 -0.201368 0.0292226
男生 -0.0979172 0.0621885 -0.469854 -0.0937125 -0.0414114 0.214621 0.00348475 -0.118403 -0.0660945 0.0924774 -0.12836 0.0451685 -0.0566138 0.343152 0.00340402 -0.321418 0.116286 0.185328 -0.259654 -0.0572468 -0.270532 -0.102903 0.0746605 0.244617 -0.23432 0.333116 -0.11118 -0.195782 -0.137464 0.092207 -0.184338 -0.226286 -0.348471 0.269737 -0.130548 -0.118494 0.0328011 -0.100618 -0.155985 -0.0302573 -0.0771689 0.0543523 0.16639 -0.0317281 0.0689028 -0.0164228 0.240331 0.117682 -0.272077 0.0725567 0.101592 0.235943 -0.379062 -0.27916 -0.0369295 -0.0655989 0.295606 -0.21444 -0.0836755 0.0724343 -0.0760678 -0.515285 -0.101497 -0.0802067 0.110375 0.220042 0.0304208 -0.282443 -0.108528 0.00604967 0.466691 -0.290878 0.280719 0.285279 0.0185029 -0.137439 -0.278986 -0.12828 -0.428618 -0.36721 -0.145715 0.0185922 0.219675 -0.0542761 0.0854167 -0.0277579 0.338233 -0.224357 -0.209242 -0.154795 0.133107 -0.182388 -0.312096 -0.367764 0.309738 0.078446 0.497412 -0.461038 -0.128018 -0.0672776
女生 0.096438 0.0391803 -0.438864 0.183617 0.21571 0.0137984 0.0232871 -0.0959405 -0.104068 0.0544771 -0.0176929 0.0397374 0.371325 0.176442 0.0341085 -0.109568 0.248885 0.056821 0.0706163 0.0885871 -0.0753253 -0.191658 0.176219 0.338823 -0.0396892 -0.00629298 0.0141379 -0.294565 0.000536131 0.176746 -0.0151327 0.0671243 -0.136111 -0.121404 -0.0381005 -0.182083 -0.014105 -0.208174 0.0728296 -0.105929 0.115179 0.264554 -0.0219809 -0.233393 -0.0132755 -0.0704706 0.240736 0.123968 0.00579139 0.220399 0.365646 0.195473 -0.0774379 -0.12398 -0.175872 0.0914998 0.263638 -0.031644 0.0469458 -0.0411091 -0.167164 -0.292922 -0.0647221 -0.277774 0.0652191 0.205019 0.00959755 -0.0799797 -0.125258 -0.00699286 0.233085 -0.0723146 0.167114 -0.135633 -0.045761 -0.131131 -0.05681 -0.0985422 -0.0465195 -0.109967 0.00713926 0.0750095 0.0183773 -0.0546077 0.0756467 0.0160704 0.354252 -0.291246 -0.458436 0.210724 0.197941 -0.33701 -0.0403591 -0.253026 0.143016 -0.0828189 0.206034 -0.247957 -0.0531148 -0.0179632
汽车 0.118702 0.0920661 -0.553882 0.0918332 0.175219 0.216441 0.0370299 -0.0999691 -0.178252 0.180793 0.0579596 0.0472762 0.137882 0.21997 0.132522 -0.119131 0.0480231 0.161972 -0.0186051 0.0801829 -0.203032 -0.00957109 0.0887633 0.211306 -0.0376215 0.254206 0.0529374 -0.362771 0.231494 0.210853 0.0686278 0.141953 0.00126616 -0.0479782 0.0563865 -0.0968489 -0.0980575 -0.073712 0.0911893 -0.241189 0.0539904 0.426951 0.0458369 -0.144061 0.0441478 -0.122609 0.19639 -0.0640644 -0.0424675 0.123729 0.233068 0.0776291 -0.109114 -0.122169 -0.0836335 0.104676 0.210754 -0.113137 0.00754263 0.175005 -0.131398 -0.449503 0.0315318 -0.156241 0.0685533 0.158273 -0.108599 -0.322601 -0.088905 0.0240297 0.277028 -0.0776596 0.0332707 -0.10655 -0.0991052 -0.0624029 -0.0937377 -0.132161 -0.0882501 -0.0714254 -0.00993448 0.13567 -0.0229391 -0.0633419 0.0506964 0.0570599 0.0097947 -0.24644 -0.251157 0.0491926 0.153184 -0.332786 -0.206182 -0.298224 0.0218343 -0.156636 0.193679 -0.360953 0.18638 0.155262
行业 0.0614371 0.0646742 -0.356425 0.159511 0.181288 0.207137 -0.0508791 -0.0768907 -0.154349 0.0606946 -0.0150022 -0.0167968 0.343232 0.25601 0.0217177 0.0329827 0.141788 0.102454 0.02321 0.0468385 0.0801307 -0.0321175 0.252259 0.292856 -0.0663417 -0.0461744 0.0366467 -0.293944 0.0838361 0.218169 -0.0589752 0.091137 -0.025234 -0.217882 -0.0559475 -0.072179 -0.130379 -0.185059 0.08857 -0.0761325 0.198577 0.350449 -0.115906 -0.236298 0.0664502 -0.232865 0.115676 0.0651523 0.00974566 0.18261 0.281357 0.146984 0.0438742 -0.103446 -0.194599 0.111691 0.224303 -0.122925 0.110245 0.0234229 -0.187016 -0.393497 -0.0647998 -0.18232 0.0684566 0.299272 0.0561757 0.014554 -0.120333 0.0565653 0.178461 0.0214083 0.0852688 -0.134904 -0.127 -0.133577 -0.059007 -0.110444 -0.0405517 -0.0636464 0.0106705 0.0185798 0.0130429 0.0647273 0.144896 0.00836206 0.361916 -0.184695 -0.394846 0.134502 0.205651 -0.401792 -0.0731157 -0.11797 0.123818 -0.0866667 0.257679 -0.0917818 0.11797 0.0415313
有 0.000290698 0.0775334 -0.362446 0.00359839 0.242063 0.358268 -0.0288773 -0.190555 -0.13221 0.0435342 0.0915346 0.130714 0.144342 0.293954 0.0468659 -0.159051 0.245827 0.163136 0.101597 -0.0157425 -0.178191 -0.162193 0.0107744 0.169912 -0.233575 0.00157262 -0.0659656 -0.0668512 0.126829 0.112804 -0.049957 -0.024822 0.0127084 -0.277812 -0.0700063 -0.103959 0.0213506 0.0213761 0.0799401 -0.210641 0.0880771 0.231362 -0.0189034 -0.216831 0.012952 -0.265282 0.123945 0.19303 -0.0370595 0.152646 0.106172 0.158034 -0.270656 -0.120688 -0.143539 0.249405 0.17983 -0.0796242 0.0183146 0.0873405 -0.102356 -0.253772 -0.0834907 0.0285714 0.119521 0.222067 0.108597 0.12414 -0.0106903 -0.00428267 0.208466 0.00143452 0.0174013 -0.038568 -0.0488929 0.0970002 0.0189958 -0.232582 -0.197875 -0.170868 0.129519 0.105815 0.0690254 -0.0365844 0.0689714 0.00291863 0.252741 -0.0588396 -0.175096 0.170264 0.308102 -0.267155 0.00760973 -0.288223 0.146446 -0.0122033 0.22007 -0.160515 0.0807329 0.0986745
笑话 0.283001 0.0678954 -0.785734 0.0911264 0.156974 0.0774719 0.224751 0.0713465 -0.228148 0.149734 -0.0101402 0.15097 0.157463 0.265043 0.103048 -0.0627382 -0.0327859 0.134989 0.00905131 0.290038 -0.384875 0.0213246 0.0990364 0.170029 -0.0586319 0.327295 -0.0392782 -0.265169 0.191643 0.338337 0.207676 0.104398 -0.00461964 -0.0500293 0.195403 -0.0199177 -0.313446 0.0750112 0.133533 -0.34881 0.0706483 0.544372 0.164679 -0.0336872 -0.0037563 -0.148375 0.323568 -0.137962 -0.19201 0.258359 0.144922 -0.0667443 -0.116756 0.0144475 -0.0833869 0.264702 0.260928 -0.159578 0.0134921 0.161299 -0.0774728 -0.419809 0.0214622 -0.0751114 0.175249 -0.017533 -0.118359 -0.452019 0.0153818 0.0662091 0.264278 -0.0191871 0.0459083 -0.234517 -0.23944 -0.0490959 -0.0821474 -0.207378 -0.162385 -0.301142 0.196552 0.192992 -0.0663181 -0.1271 0.125971 0.0739059 -0.144761 -0.315126 -0.171875 0.172781 0.320696 -0.305738 -0.134826 -0.263406 -0.0263176 -0.391402 0.0331092 -0.330234 0.197069 0.161473
快速 0.158829 0.156521 -0.610683 0.0892882 0.128572 0.257393 0.0524904 0.0631998 -0.233166 0.14241 -0.050304 0.127015 0.12122 0.278321 0.0973411 -0.0126854 0.0121568 0.0788517 0.0154097 0.214949 -0.239031 0.0880658 0.152654 0.164187 -0.290831 0.227211 -0.219841 -0.208027 0.120149 0.334995 0.11355 0.00332795 -0.00974259 -0.0574307 0.0727389 0.046826 -0.301924 -0.0206956 0.0360839 -0.296321 0.0831954 0.446168 0.0763674 -0.0709783 0.0154888 -0.256794 0.214185 -0.055151 -0.286206 0.245545 0.119239 0.019521 -0.0786441 0.117908 -0.112977 0.232985 0.234503 -0.227803 -0.0167299 0.142598 -0.0954985 -0.447393 0.0225415 -0.0220623 0.17093 -0.0544912 -0.0750903 -0.155701 0.0384892 0.0714825 0.228269 0.0509534 0.156597 -0.0913176 -0.299331 -0.0402541 -0.146144 -0.190537 -0.179599 -0.302374 0.13279 0.11511 -0.000217793 -0.0971947 0.0655623 0.0288792 0.019214 -0.160311 -0.117931 0.0664163 0.280815 -0.20233 -0.0936194 -0.158913 0.0218504 -0.271374 0.151336 -0.196209 0.209012 0.153719
前 0.00310962 0.0460887 -0.40317 -0.0285072 0.242419 0.184335 0.13484 -0.110469 -0.181054 0.0985347 -0.0693114 0.116941 0.0927823 0.258409 -0.0286016 -0.144618 0.168726 -0.00658551 0.112059 0.00200885 -0.276565 0.0269572 -0.0499455 0.253967 -0.162776 0.188699 -0.010933 -0.11303 0.153181 0.0733026 -0.129932 -0.0348593 -0.0377312 -0.0440123 0.0613498 0.0129573 -0.111641 -0.0284945 -0.0498262 -0.256919 0.0081391 0.262197 0.0296504 -0.145453 0.064532 -0.170769 0.162662 0.168559 -0.0387883 0.169703 0.212711 0.127401 -0.224516 0.0350446 -0.150593 0.190515 0.247488 -0.128377 0.0056171 0.0567125 0.0247148 -0.311817 -0.0403941 0.0248435 0.108727 0.13347 0.0878759 0.046283 0.0139602 -0.0420112 0.34211 0.00389472 0.0711711 0.0382231 -0.0882754 -0.0926492 -0.0966136 -0.171711 -0.242874 -0.251026 0.145791 0.0639616 0.128051 -0.0546415 0.155877 0.0426939 0.190257 -0.16306 -0.179549 0.0733253 0.225255 -0.137791 -0.010757 -0.332381 0.124859 -0.00224727 0.303217 -0.284602 0.0793086 0.0789598
上 -0.0396023 0.0858552 -0.298645 -0.23169 -0.101185 0.141419 -0.0917938 -0.031821 -0.185953 -0.0907442 -0.106808 0.0343437 0.139522 0.448873 0.0311129 -0.200785 0.134544 0.0699674 -0.146043 0.0163428 -0.201842 -0.122165 0.147579 0.375609 -0.271266 -0.0507838 -0.239498 -0.0923451 -0.0792309 0.181367 -0.120418 -0.256013 -0.262485 0.0719774 -0.205985 -0.0444903 0.0111144 -0.107143 -0.132449 0.0206793 -0.0485987 -0.0583824 0.047394 -0.0489076 0.02576 -0.192739 0.227565 0.204943 -0.403366 0.181986 0.120052 0.182735 -0.379973 -0.173471 -0.0984688 0.0820271 0.227761 -0.118421 0.0638587 -0.00675922 -0.0474075 -0.447053 -0.276144 -0.0953755 0.141276 0.2883 0.236299 -0.0737297 -0.0832246 -0.0422042 0.505511 -0.155773 0.242484 0.166309 -0.0500384 -0.0970801 -0.223912 -0.146372 -0.352556 -0.432361 -0.0297216 -0.0201888 0.273661 0.00440226 0.126459 0.0215651 0.612971 -0.0618731 -0.213251 -0.00675514 0.360501 -0.209383 -0.0735442 -0.208077 0.48973 0.0104039 0.492447 -0.206774 -0.17043 0.0158814
冰 0.0546349 0.0873946 -0.403937 -0.061412 0.0706113 0.130716 0.0337596 -0.0210888 -0.183221 0.0423247 0.0329676 0.0580605 0.236482 0.368366 0.0693067 -0.110159 0.110577 0.0851105 -0.0755575 0.0905059 -0.195206 -0.187191 0.167642 0.293403 -0.138309 0.0159719 -0.0547163 -0.223677 0.0313448 0.25181 -0.024453 -0.0651822 -0.0927276 -0.0334509 -0.0190989 -0.0658331 -0.0182512 -0.0616758 0.0799097 -0.0400028 -0.0279892 0.134392 0.0640931 -0.110098 0.0406025 -0.109369 0.272213 0.126074 -0.227868 0.169443 0.186278 0.0355141 -0.265965 -0.121419 -0.0723434 0.144045 0.246225 -0.0669431 0.0680909 0.0932948 -0.0994918 -0.351905 -0.0987338 -0.182214 0.196201 0.21201 0.0770445 -0.185237 -0.0580717 0.005604 0.330014 -0.0919355 0.131641 -0.107185 -0.0634046 -0.0300174 -0.115598 -0.0800566 -0.154253 -0.262524 0.0244116 0.0432379 0.029017 -0.0381221 0.123313 0.0124097 0.371655 -0.133735 -0.231211 0.200801 0.36154 -0.256375 -0.0803277 -0.188785 0.305829 -0.15203 0.27926 -0.206202 -0.0465248 0.0633137
发动机 0.0202839 0.112722 -0.215873 0.16346 0.179777 0.122678 0.109585 -0.0854368 -0.13131 0.0923659 -0.000899029 -0.0224248 0.191635 0.27128 0.00152086 -0.0945333 0.150579 0.0344161 -0.0189044 0.0702743 -0.131163 -0.024452 0.14671 0.296599 -0.129877 0.0650631 -0.0543346 -0.313134 0.151771 0.185689 -0.0973223 -0.0272646 -0.0228874 -0.158905 0.0422224 -0.0459343 -0.142782 -0.113438 -0.0225193 -0.077438 0.0524381 0.281738 0.015187 -0.197655 0.0684484 -0.125995 0.108709 0.0765541 -0.0877305 0.11498 0.372452 0.0741915 -0.177673 -0.0311902 -0.125029 0.0837672 0.282645 -0.0758974 0.0998568 0.11513 -0.107316 -0.359188 0.00271279 -0.0841359 0.0735626 0.225147 0.056823 -0.0752795 -0.0272604 0.0243555 0.306214 -0.019138 0.0940173 -0.190307 -0.117862 0.00894692 -0.172309 -0.0739085 -0.0896211 -0.182038 0.0255998 0.0146515 -0.0285176 -0.0138535 0.0600928 0.0443335 0.29061 -0.177867 -0.237611 0.164786 0.235162 -0.219528 -0.0923886 -0.262563 0.123324 -0.0644236 0.27112 -0.170405 0.133662 0.0895504
， -0.00725011 0.131931 -0.330666 -0.0149833 0.240263 0.00317228 0.358377 0.0210958 -0.0437681 -0.0296937 0.0205381 0.0296826 0.190787 0.269566 -0.167052 -0.266378 0.360249 -0.0410258 0.110328 0.0376809 -0.319853 -0.0477557 -0.0928218 0.208327 -0.0937449 0.141662 0.0624053 -0.149862 0.166771 0.0247033 -0.23709 -0.147316 -0.0266889 -0.119217 0.160674 -0.0602624 -0.10582 -0.0136416 -0.0337134 -0.172266 -0.0639181 0.202983 0.0754822 -0.2644 0.0247495 -0.0677802 0.164957 0.240676 0.0300078 0.141068 0.20867 0.000278177 -0.444481 -0.0660021 -0.0856659 0.120861 0.277721 0.0228172 0.033308 0.0575223 0.0115245 -0.171745 -0.115333 0.0992266 0.180453 0.262707 0.143808 0.0784047 0.165224 0.0931368 0.369695 -0.0434215 0.110599 -0.144862 0.0476462 -0.00597823 -0.210497 -0.0823387 -0.168788 -0.256807 0.0913232 0.120065 0.0276703 -0.0386236 0.192451 0.0738191 0.271746 -0.238804 -0.289573 0.384688 0.313173 -0.102332 0.0579534 -0.44779 0.102666 -0.0886556 0.304604 -0.208384 -0.0538022 0.0418813
问题 -0.17825 0.122821 -0.370734 0.456087 0.222097 0.75842 -0.469157 -0.431531 -0.0735902 0.25626 0.17873 0.333008 -0.163208 0.196889 0.12507 -0.188533 0.109987 0.343506 -0.0348196 -0.148456 -0.178033 -0.289035 0.227454 0.00324409 -0.45349 0.163634 -0.483417 -0.171307 -0.0774146 -0.0625349 -0.253517 0.0436467 -0.103895 -0.327081 -0.081622 -0.284177 0.132692 -0.200542 0.116477 -0.366054 0.14422 0.437606 -0.0195961 -0.233281 -0.0220126 -0.256397 0.0214807 0.209277 -0.308446 0.294998 0.400262 0.425456 -0.115252 -0.2245 -0.125319 0.169486 0.174392 -0.382039 -0.128266 0.144256 -0.0385977 -0.456428 0.175042 0.0250839 -0.11404 -0.100078 -0.145999 0.209552 -0.34779 -0.100686 -0.0727479 0.0407792 0.0363361 0.306588 -0.104278 0.113796 -0.0267636 -0.222607 -0.354 -0.0842405 -0.0383807 0.118825 0.155914 -0.15923 -0.396426 -0.0752553 0.048865 -0.0703832 0.00236829 -0.348209 0.0230321 -0.242634 -0.155713 -0.226407 0.012403 0.268529 0.11312 -0.387651 0.299431 0.0562229
大 -0.00800572 0.10933 -0.282088 0.149227 0.165585 0.269943 -0.0377855 -0.173012 -0.0641307 0.0403105 0.0871966 0.0146691 0.206925 0.247466 0.000492236 -0.0705114 0.239805 0.126567 0.0134281 -0.00303198 -0.0661696 -0.149588 0.142098 0.226069 -0.134679 0.048604 -0.0558464 -0.197161 0.085232 0.124315 -0.163666 0.0165991 -0.0129632 -0.242372 0.0163374 -0.0890726 -0.050332 -0.108476 0.0437803 -0.162776 0.0583939 0.273013 -0.0292285 -0.266431 0.0669812 -0.190357 0.0564287 0.158572 0.0345008 0.175544 0.291361 0.147417 -0.14466 -0.0780815 -0.141427 0.0838581 0.232251 -0.144773 0.0501014 0.0643014 -0.107799 -0.334477 -0.0130495 -0.0442944 0.0392161 0.264859 0.039842 0.149572 -0.0851667 0.0427141 0.1696 0.00514789 0.12576 -0.0365546 -0.0575522 -0.0272966 -0.0342393 -0.116778 -0.0898503 -0.0952896 0.0139012 0.0553285 0.0631906 -0.00619948 0.077045 0.0393868 0.317698 -0.118176 -0.244466 0.13097 0.188725 -0.268966 -0.0620663 -0.259215 0.170201 0.0204432 0.251883 -0.129953 0.0679688 0.0719667
吗 -0.0674777 0.0192279 -0.383517 0.194135 0.209787 0.192887 -0.118507 -0.328659 -0.0588617 0.0606751 0.0859439 0.0914835 0.171548 0.260717 -0.0246797 -0.0935839 0.29349 0.155486 0.0795654 -0.165948 -0.0548952 -0.306946 0.0965548 0.0941545 -0.24739 0.129541 -0.0779951 -0.104264 -0.0246496 -0.0574592 -0.0789669 -0.0901968 -0.143374 -0.174492 0.0396919 -0.255052 0.0472119 -0.174088 0.0292409 -0.0855929 0.00407944 0.285012 -0.133719 -0.239123 0.0185875 -0.191272 0.091301 0.409296 0.0191532 0.261693 0.307545 0.326537 -0.193624 -0.233684 -0.182998 0.20869 0.218651 -0.169075 -0.00993983 -0.0025821 -0.0478515 -0.346516 0.0107227 -0.134251 -0.0313968 0.240184 0.0865068 0.220933 -0.265335 -0.0461291 0.11256 0.00396246 0.181579 0.163606 -0.060197 -0.0546416 -0.0408115 -0.0688196 -0.182353 -0.168301 -0.0416437 0.0748287 0.212584 -0.0372535 -0.121569 -0.0446092 0.303065 -0.156377 -0.304951 0.0953444 0.0609287 -0.093336 -0.100696 -0.236526 0.0806802 0.0876104 0.33431 -0.240719 -0.0176076 -0.00969637
在 -0.0149749 -0.0316278 -0.456848 0.0459229 0.433066 0.171237 -0.198361 0.0598374 -0.0326623 -0.0881677 -0.0524727 0.238897 0.0663532 0.506463 0.0336541 -0.237934 0.439827 0.184714 0.018632 -0.229683 0.0463722 -0.0776843 -0.0986335 -0.13418 -0.172774 0.0387815 0.104644 -0.0198458 -0.233399 0.0371511 -0.239567 -0.135952 0.107011 -0.246155 -0.105965 -0.144253 -0.161077 -0.0455499 0.026265 -0.380869 0.500082 0.551103 -0.263244 -0.207381 -0.0436772 -0.155284 0.0557118 0.330337 0.404508 0.103489 0.179459 0.295661 -0.105488 -0.169812 -0.248396 -0.0400201 0.0296008 -0.0758445 -0.0889895 0.0134312 -0.258932 -0.230978 -0.0998959 0.0871412 0.106198 0.166848 0.0708082 0.311732 0.227949 0.0965457 0.212847 0.0539554 0.0521234 0.237592 -0.014874 0.102858 -0.0189506 -0.250754 -0.112533 0.181775 0.267334 0.122324 -0.0433393 0.0168957 0.199457 -0.0886624 0.288587 -0.405555 -0.28145 0.19166 0.0933296 -0.375449 -0.0528923 -0.222771 0.0966998 0.094622 0.265645 -0.27981 -0.113584 0.00899868
达到 -0.0458651 0.0748057 -0.456658 0.472442 0.115394 0.26977 -0.273796 0.067029 -0.18225 -0.0293208 -0.126128 0.114776 0.122031 0.36767 -0.10756 0.0538582 0.0571823 0.117709 -0.145476 0.0271057 0.0890175 -0.0656429 0.287048 0.0771295 -0.146063 0.0249325 -0.245493 -0.322274 -0.34771 0.445854 -0.189808 0.118638 -0.0623316 -0.171326 -0.0665496 -0.0628121 -0.235994 -0.379985 0.0849894 -0.144646 0.262196 0.549933 -0.244236 -0.216874 -0.00538993 -0.22435 0.0958073 0.132849 -0.213033 0.395263 0.320957 0.303705 0.136429 -0.0741079 -0.0685379 0.0264757 0.0892766 -0.351147 -0.0949551 -0.0172494 -0.318914 -0.402855 0.110102 -0.260476 0.0640714 0.185288 -0.0266533 0.000260137 -0.282669 -0.0346344 -0.0863239 0.0730423 0.134938 0.0832643 -0.159472 -0.1315 -0.262813 -0.0768552 -0.266831 0.0177611 -0.018288 0.0620572 0.169396 0.0469291 -0.0451403 -0.00523966 0.329282 -0.186632 -0.380224 -0.033678 -0.0704985 -0.386525 -0.129364 -0.112925 0.170335 0.204995 0.25755 -0.0816391 0.117844 0.16784
之前 0.0201692 0.0873371 -0.509254 0.456738 -0.218304 -0.164785 -0.346096 0.232412 -0.0205821 -0.117569 -0.197051 -0.00950989 0.139436 0.395406 -0.0934577 -0.00100457 0.0949035 0.207439 -0.201266 0.0251181 0.103157 -0.0279947 0.232148 0.0398846 -0.288681 0.120923 -0.292499 -0.261722 -0.383593 0.365529 -0.150592 0.147975 -0.118999 -0.193075 -0.0897878 -0.102481 -0.340407 -0.370727 0.0592231 -0.260496 0.355837 0.584139 -0.232062 -0.157228 -0.0314963 -0.228734 0.105423 0.131511 -0.147248 0.451363 0.339049 0.301288 0.164977 -0.000268239 -0.16216 0.00644837 0.1457 -0.290572 -0.0443267 -0.0741141 -0.209199 -0.514596 0.123497 -0.232259 0.0790578 0.179696 -0.0282072 0.102457 -0.264545 0.0573485 0.0296797 0.135252 0.264219 0.0661275 -0.224606 -0.194292 -0.233551 -0.118552 -0.342455 -0.0106228 0.00714023 -0.0508555 0.195098 0.117953 -0.0253033 -0.000686382 0.25057 -0.279826 -0.351912 -0.117114 -0.0903878 -0.386579 -0.201179 -0.220604 0.258034 0.229316 0.324277 -0.107799 0.193798 0.14103
或 -0.143397 0.000181325 -0.638318 0.151695 0.17456 -0.189979 0.0881421 -0.201103 -0.0578238 0.0728298 0.0692011 0.0141431 0.264282 0.345459 -0.192507 -0.1003 0.328905 0.0890479 0.0289532 -0.0940088 -0.11796 -0.342265 0.0660808 0.133112 -0.110821 0.34083 0.134595 -0.214224 -0.188797 -0.14061 -0.126532 -0.112179 -0.331617 0.118266 0.196537 -0.285286 0.0685902 -0.289285 -0.00981483 -0.0439883 -0.223573 0.242452 0.00829459 -0.248851 0.0378082 -0.0705376 0.241821 0.461927 0.149 0.302022 0.32532 0.172426 -0.333158 -0.316198 -0.0875582 0.0765448 0.278942 -0.118873 -0.137942 -0.0129629 -0.0590855 -0.287785 0.0315462 -0.199889 0.029571 0.33182 0.100978 -0.00655871 -0.206422 0.0819443 0.18594 -0.113923 0.330599 0.167885 0.0845355 -0.254005 -0.105344 0.0968365 -0.119488 -0.239304 -0.123387 0.0969021 0.175651 0.0399962 0.0435425 -0.0774348 0.354493 -0.333545 -0.570478 0.28822 -0.0608706 -0.000781278 -0.157906 -0.369955 0.137221 -0.0459737 0.5491 -0.372184 -0.286384 -0.0933608
通过 0.0867625 0.0533955 -0.454996 0.138036 0.248187 0.0651227 0.103649 -0.0803352 -0.124028 0.082887 -0.000304441 0.0167916 0.278562 0.241999 -0.0470807 -0.082646 0.214802 0.0681468 0.0724855 0.0571087 -0.0980794 -0.0866881 0.0712848 0.233738 -0.0362039 0.089812 0.0709221 -0.237286 0.0937131 0.136387 -0.0270195 0.0658235 -0.0182628 -0.144194 0.0975562 -0.120348 -0.106306 -0.0845085 0.0620343 -0.19261 0.0549065 0.323122 -0.0497206 -0.2423 0.000111661 -0.106404 0.13578 0.0937022 0.0796824 0.154625 0.304052 0.108125 -0.140544 -0.0559922 -0.11307 0.0790307 0.260188 -0.0725207 0.0971441 0.0412333 -0.123918 -0.324532 -0.00711597 -0.111151 0.0836801 0.244548 0.0314785 -0.0362707 -0.0105913 0.0169215 0.241947 -0.0458914 0.159873 -0.134848 -0.0572119 -0.0998005 -0.0593566 -0.104972 -0.0426214 -0.10399 0.0657434 0.0662668 0.0119344 -0.0274413 0.110666 0.0503873 0.242715 -0.259619 -0.353075 0.260063 0.17776 -0.250675 -0.0848588 -0.277148 0.0531304 -0.108531 0.218259 -0.200835 0.0317465 0.0610464
不 -0.0406369 -0.0249132 -0.617597 0.507299 0.411875 0.550654 -0.320721 -0.701922 -0.089824 0.187321 0.197628 0.40507 -0.0780146 0.0362487 0.153415 -0.211534 0.186863 0.297661 0.0804347 -0.148098 -0.242729 -0.51103 0.173277 0.0849666 -0.354532 0.33361 -0.342772 -0.17309 0.0232602 -0.251231 -0.124147 0.0628505 -0.215051 -0.204111 -0.066794 -0.509878 0.267468 -0.320131 0.0943438 -0.340716 -0.0295746 0.438597 0.0274913 -0.247889 -0.0184763 -0.0699052 0.125529 0.369648 -0.216525 0.316457 0.444585 0.592106 -0.0994209 -0.390011 -0.163771 0.229335 0.264842 -0.225431 -0.187395 -0.00546954 0.0137845 -0.409465 0.151621 -0.123286 -0.219235 -0.00973104 -0.205713 0.0920134 -0.442947 -0.161114 -0.033161 -0.0774266 0.110296 0.337379 -0.0582763 -0.0346907 0.0734541 -0.12524 -0.325804 -0.142458 -0.121357 0.355384 0.289686 -0.17196 -0.409095 -0.0560891 -0.06839 -0.201479 -0.253749 -0.193053 -0.0987258 -0.161432 -0.0902945 -0.418774 -0.151855 0.271489 0.200376 -0.56216 0.0526818 0.00852161
车 -0.0248643 -0.0387901 -0.61113 0.453236 0.353329 0.393001 -0.286091 -0.657821 -0.0980959 0.227034 0.180861 0.399285 -0.0167801 0.15413 0.158772 -0.15722 0.230673 0.307841 0.102282 -0.125159 -0.248932 -0.520454 0.157642 0.0940891 -0.352384 0.272958 -0.334906 -0.152689 -0.0362411 -0.272824 -0.0909596 0.0793466 -0.306247 -0.16125 -0.0123835 -0.425841 0.240431 -0.273694 0.0499799 -0.271598 -0.0426043 0.344077 0.0208338 -0.21743 -0.050389 -0.100376 0.113586 0.260611 -0.167929 0.346483 0.443084 0.507545 -0.164063 -0.384394 -0.191802 0.270693 0.209978 -0.204587 -0.13413 -0.00903241 0.0156091 -0.342171 0.2221 -0.171593 -0.140304 0.0979548 -0.18469 0.110182 -0.426193 -0.149348 0.00632171 -0.121348 0.10582 0.331311 -0.107638 -0.0137818 0.055197 -0.0773237 -0.29191 -0.143041 -0.115959 0.296523 0.204555 -0.128646 -0.390632 -0.0177295 -0.0123137 -0.201436 -0.344804 -0.222158 -0.107986 -0.204881 -0.122552 -0.331351 -0.108607 0.160357 0.177648 -0.529111 0.0489055 -0.0676129
方式 -0.125193 0.148135 -0.37508 0.256857 0.127321 0.664711 -0.465106 -0.167736 -0.151309 0.237452 0.0181022 0.179648 -0.0812696 0.23581 0.123192 -0.104397 0.0375851 0.278637 -0.0766141 0.0277344 -0.112724 -0.0631108 0.268318 0.0313503 -0.392248 0.0805676 -0.448339 -0.180771 -0.0969279 0.193483 -0.119615 0.0150218 -0.0796464 -0.291977 -0.0919398 -0.0977547 -0.0557927 -0.187303 0.142605 -0.304819 0.313374 0.471437 -0.114023 -0.141362 -0.0325343 -0.358291 0.0830795 0.0608235 -0.378852 0.268319 0.214718 0.305293 0.00244103 0.00233092 -0.19105 0.156781 0.115614 -0.433318 -0.0676088 0.164529 -0.147204 -0.496935 0.0493551 -0.0455648 0.0168516 -0.162455 -0.100357 0.125485 -0.238359 -0.0340916 -0.0464976 0.0931858 0.0692779 0.143759 -0.17385 0.0731954 -0.0415238 -0.302213 -0.336834 -0.173252 0.073793 -0.0352117 0.0644004 -0.092415 -0.193213 -0.0699006 0.187561 -0.0487133 0.027981 -0.326482 0.132215 -0.324737 -0.213453 -0.0858853 0.163649 0.12185 0.0864123 -0.272199 0.375851 0.0547727
判断 0.191806 0.138889 -0.491751 0.161704 0.276839 -0.116685 0.281402 -0.0168843 -0.115355 0.0221561 0.0223526 0.102397 0.492472 0.134922 0.0129951 -0.212359 0.312309 -0.0409538 0.121059 0.135599 -0.242007 -0.114045 0.072087 0.401909 0.0769326 0.00767703 0.109814 -0.352352 0.134507 0.203925 -0.0282981 0.0743476 -0.0449939 -0.0988187 0.0446912 -0.164383 -0.0611685 -0.168483 0.0566208 -0.165028 0.0182493 0.203298 0.082747 -0.291915 0.00916887 0.0247572 0.362484 0.118735 0.131821 0.273637 0.412642 0.0327453 -0.217416 -0.11613 -0.155135 0.0713016 0.279997 0.16301 0.109341 -0.118 -0.135968 -0.161047 -0.104438 -0.253659 0.153209 0.257473 -0.00536318 -0.178517 0.0381305 0.0383291 0.341238 -0.0589744 0.140652 -0.263329 -0.0105086 -0.182753 -0.143122 -0.048306 -0.000659235 -0.120362 0.0194327 0.172243 -0.0069055 -0.132296 0.20073 0.0953533 0.255314 -0.400955 -0.53653 0.372211 0.287387 -0.30199 0.122096 -0.378348 0.0833034 -0.244948 0.238617 -0.233399 -0.142608 0.0100439
情况 -0.0370307 0.110775 -0.132388 0.270197 0.316058 0.397359 -0.228583 -0.228986 -0.0489574 0.0217084 0.0219607 0.079488 0.27203 0.239506 -0.0174094 -0.1028 0.357384 0.114452 0.0451654 0.000880886 0.104982 -0.126614 0.177766 0.195685 -0.157199 -0.191873 -0.182335 -0.120061 0.00285581 0.102366 -0.145236 0.0402709 -0.0551085 -0.389782 -0.0629145 -0.156798 -0.0806119 -0.20184 0.0872944 -0.068357 0.248638 0.383028 -0.194005 -0.262164 0.0261317 -0.325726 0.0348736 0.126948 -0.00935989 0.223761 0.306917 0.335245 -0.0410097 -0.0421148 -0.340189 0.134592 0.149378 -0.107935 0.00880823 -0.0244324 -0.182467 -0.232407 -0.0573925 -0.133022 0.0527964 0.16398 0.0896055 0.282168 -0.153695 -0.0262146 -0.00350005 0.0370364 0.0591202 -0.0584357 -0.0212369 0.0358288 -0.00652237 -0.284948 -0.116507 -0.0378766 0.0311456 -0.104148 0.0222494 0.00198941 -0.0116092 -0.00590126 0.454082 -0.120048 -0.288609 0.0573585 0.167644 -0.325769 -0.090505 -0.16432 0.212379 0.125779 0.243991 -0.0493381 0.182017 0.0165342
选 0.0410827 0.112941 -0.382932 -0.0730367 0.136429 0.136524 0.172735 0.0497264 -0.152989 0.0490817 0.0895776 -0.0799181 0.184523 0.373585 -0.110728 -0.0956212 0.174181 0.0759836 -0.0279689 0.111691 -0.212587 -0.0182579 0.0105886 0.140813 -0.1211 0.152797 0.073715 -0.188584 0.144556 0.212433 -0.0884189 -0.113268 0.0612354 -0.106055 0.196036 -0.0160472 -0.146706 0.0113059 0.0795576 -0.0969544 -0.0693478 0.319459 -0.0285628 -0.2212 0.0202591 -0.189318 0.077694 0.16235 -0.0294006 0.114605 0.126494 -0.109034 -0.34451 -0.053961 -0.00578325 0.10126 0.218607 -0.0989881 0.0615426 0.204856 -0.0836279 -0.351193 -0.103327 -0.00469977 0.203171 0.23195 0.133309 -0.00351698 0.13132 0.0941281 0.319668 -0.0066462 0.128151 -0.173843 -0.0999917 -0.00732451 -0.1774 -0.0481213 -0.0724632 -0.202995 0.089436 0.00729892 -0.0101926 0.0174265 0.184053 0.0432956 0.314552 -0.190139 -0.182433 0.405361 0.351829 -0.0852087 -0.0858363 -0.25095 0.161801 -0.202729 0.251428 -0.137241 0.0651519 0.136457
辆 0.0515279 0.0741248 -0.388594 0.183047 0.250161 0.162094 -0.0713047 -0.144164 -0.0980866 0.0417552 0.0618721 0.0234673 0.264919 0.249191 -0.0119556 0.00573007 0.235937 0.0983737 0.0687356 0.0979444 -0.0317635 -0.0954056 0.193346 0.185145 -0.11417 -0.0369916 -0.0332002 -0.164545 -0.0310596 0.148898 0.00362996 0.0133954 -0.0634681 -0.205035 0.0884227 -0.0915213 -0.149448 -0.168195 0.114973 -0.0304971 0.156152 0.446773 -0.12594 -0.213803 -0.00480866 -0.331595 0.118319 0.183095 -0.0369257 0.263785 0.23675 0.187297 -0.0829373 -0.0447846 -0.211647 0.225306 0.177774 -0.164254 -0.00446549 -0.0105557 -0.160703 -0.262443 -0.0383039 -0.108138 0.0845459 0.150213 0.00950828 0.0803129 -0.168353 0.0797266 0.0142509 0.0554996 0.0622266 -0.0770243 -0.138269 -0.00017985 -0.0505293 -0.161987 -0.0937649 -0.17297 0.0374641 -0.0268854 0.00277674 0.00367075 0.0279223 -0.000676483 0.335435 -0.143762 -0.26709 0.159302 0.226969 -0.277109 -0.0842431 -0.150812 0.155104 -0.157818 0.211079 -0.121391 0.152752 0.0697761
适合 0.0581363 0.109314 -0.497877 0.102979 0.0600832 0.288111 -0.189294 -0.0858758 -0.181384 0.127751 -0.0551883 0.0979129 0.177914 0.213026 0.125235 -0.0817071 0.0188146 0.168193 -0.0591658 0.149594 -0.0861929 -0.0285939 0.251626 0.287007 -0.170544 0.0808688 -0.158287 -0.282252 0.0148232 0.35417 0.0509369 0.0854432 -0.14161 -0.101738 -0.135302 -0.0871495 -0.10808 -0.185804 0.10106 -0.169011 0.196834 0.339282 -0.0306713 -0.128647 0.0209207 -0.229488 0.244224 -0.0521315 -0.233564 0.228036 0.224145 0.162402 0.058292 -0.0868608 -0.137329 0.131458 0.15282 -0.207514 0.0114987 0.0508878 -0.200321 -0.499821 -0.0392081 -0.208867 0.0728806 0.118571 -0.0537434 -0.168923 -0.147244 -0.00411562 0.176103 0.00526445 0.0983672 -0.0931803 -0.150106 -0.122254 -0.0729356 -0.185496 -0.159206 -0.166808 0.00179246 0.0877867 0.0605592 -0.020408 0.064384 -0.01192 0.242928 -0.165046 -0.265192 -0.0840729 0.196682 -0.441544 -0.122394 -0.140439 0.19704 -0.101166 0.196467 -0.250842 0.156313 0.0607251
自己 0.246348 0.111142 -0.526548 -0.0817402 0.219871 0.113978 0.266072 -0.0423594 -0.140667 0.0625111 0.0518654 -0.0519631 0.0827425 0.352984 0.035787 -0.183719 0.16018 0.0977727 0.047135 0.216508 -0.438948 0.0154186 -0.0541687 0.107402 -0.00924795 0.312565 0.0776337 -0.167005 0.35114 0.302427 0.183194 -0.088668 0.0924286 -0.0697988 0.29777 -0.0379312 -0.190362 0.120827 0.112726 -0.156859 -0.0967585 0.474148 0.0810583 -0.0912394 -0.00719137 -0.188597 0.21265 -0.0185741 -0.106397 0.0709387 0.0562434 -0.0985436 -0.439177 -0.021271 0.00683497 0.305914 0.183274 -0.0297993 0.00528472 0.240838 -0.0269962 -0.363224 -0.0701669 -0.000462626 0.194698 0.127061 0.0172587 -0.337547 0.135109 0.0315564 0.374038 -0.114138 0.0258085 -0.34183 -0.0912039 0.124529 -0.135642 -0.174808 -0.128485 -0.306826 0.135889 0.104849 -0.104534 -0.0909899 0.142852 0.060098 0.0413026 -0.236226 -0.0856047 0.437629 0.461071 -0.0459721 -0.193147 -0.37196 0.0909411 -0.269868 0.123179 -0.295079 0.187139 0.208629
预算 0.0715997 0.00106711 -0.805862 0.0618655 0.109977 -0.345659 0.120076 -0.126322 -0.113942 -0.0148499 0.10216 -0.0729142 0.329983 0.357853 -0.0658904 -0.0265788 0.246463 0.0590989 0.0546476 0.0955688 -0.22138 -0.264751 0.0710917 0.139768 0.00873267 0.38115 0.253772 -0.274969 -0.0920511 0.0736092 0.134227 -0.0761036 -0.231931 0.182546 0.318562 -0.199988 -0.0184886 -0.205223 0.0343075 -0.0965968 -0.238264 0.344518 0.0280864 -0.213767 0.0198143 -0.0969444 0.298275 0.333712 0.120619 0.320693 0.274577 0.0265224 -0.295925 -0.230386 -0.0212518 0.158964 0.251665 -0.0898427 -0.0744388 -0.0244734 -0.145571 -0.382211 0.0653979 -0.235334 0.0453111 0.343223 0.0344371 -0.277458 -0.192731 0.0926318 0.262544 -0.138904 0.287754 0.000980642 -0.0356009 -0.263078 -0.0925872 0.1221 -0.00523058 -0.275149 -0.0864889 0.135458 0.144029 -0.0150048 0.0728293 -0.0427788 0.276223 -0.361821 -0.524983 0.358735 0.0572167 -0.0670826 -0.195369 -0.333986 0.149604 -0.24392 0.413681 -0.386938 -0.224816 0.0424504
是 0.108799 0.1376 -0.522523 0.00606283 0.10087 0.0138737 0.125944 0.0604301 -0.193707 0.0326834 -0.0457179 -0.00243927 0.308743 0.252697 0.0649677 -0.0697 0.132082 0.0309286 0.0711819 0.170575 -0.191261 -0.0412538 0.168492 0.309324 -0.0843572 0.0902588 -0.0267084 -0.273822 0.0749105 0.320714 0.0452748 -0.0481471 -0.0844459 -0.052965 0.00270381 -0.0508789 -0.138417 -0.131114 0.0676521 -0.0811995 0.061211 0.255172 0.019491 -0.171371 0.000973976 -0.147092 0.294078 0.125832 -0.184175 0.239234 0.192436 0.00900818 -0.147982 -0.0513969 -0.107298 0.201811 0.252359 -0.051912 0.0651951 0.0314159 -0.156008 -0.362059 -0.0664089 -0.223746 0.185671 0.147805 0.0501391 -0.180355 -0.0484677 0.0672775 0.319307 -0.00658249 0.142882 -0.205694 -0.14235 -0.10348 -0.113977 -0.10919 -0.120828 -0.298451 0.0625865 0.0456822 0.0187852 -0.060795 0.169774 0.0249246 0.341754 -0.225561 -0.337466 0.278417 0.362203 -0.264311 -0.00899347 -0.219178 0.212951 -0.252849 0.21082 -0.194029 0.0105119 0.0617048
世界 0.13866 0.145394 -0.436804 0.0958187 0.199019 0.286895 0.10596 0.00176615 -0.193304 0.157268 0.00701017 0.0372367 0.116342 0.239183 0.0993996 -0.112796 0.0932054 0.138802 -0.0258071 0.167975 -0.236405 0.0189754 0.0867261 0.179467 -0.0911252 0.155602 -0.0797746 -0.256553 0.273537 0.344117 0.0700144 0.0487341 0.0784198 -0.201032 0.0492479 -0.0387902 -0.171372 0.0330227 0.0964379 -0.239388 0.114772 0.421386 0.0482146 -0.136163 0.0226094 -0.150045 0.203616 -0.0989461 -0.165603 0.102033 0.177244 -0.00585572 -0.170665 -0.00791837 -0.107533 0.18403 0.224409 -0.119572 0.0729527 0.219215 -0.0860815 -0.412338 0.000249292 -0.0658519 0.146632 0.108145 -0.00964482 -0.256881 0.0689283 0.0109668 0.28518 -0.0219548 0.0424511 -0.322477 -0.138672 0.0633614 -0.142 -0.17714 -0.127242 -0.189113 0.114857 0.111827 -0.0785717 -0.0913033 0.0668151 0.0487819 0.0545956 -0.186191 -0.134322 0.187992 0.341573 -0.270493 -0.152496 -0.221939 0.0471725 -0.207781 0.0979171 -0.229917 0.270751 0.167538
最 -0.0947386 0.0455745 -0.39592 -0.450558 -0.144199 0.0932369 0.0152196 0.0155015 -0.195169 -0.0860009 -0.207042 0.0668781 0.194822 0.468495 -0.102603 -0.340738 0.120886 0.00813508 -0.125018 0.0104833 -0.30439 -0.0990204 0.0493736 0.490344 -0.196834 -0.0366462 -0.152952 -0.142947 -0.118199 0.237072 -0.21632 -0.302895 -0.353901 0.229731 -0.312056 -0.05473 0.0987218 -0.0870015 -0.236377 0.0440802 -0.0755895 -0.326808 0.111528 -0.0202156 0.0680184 -0.121814 0.385424 0.257997 -0.346126 0.136692 0.110046 0.167176 -0.434826 -0.252648 -0.0697137 0.00130479 0.261423 -0.0611832 0.0776762 -0.118413 -0.0284204 -0.471274 -0.388698 -0.180961 0.253674 0.356085 0.316257 -0.104353 0.00759214 -0.116753 0.670425 -0.224484 0.342629 0.245929 0.0403854 -0.225993 -0.252636 -0.154948 -0.431283 -0.564623 0.0280576 -0.0158784 0.396742 -0.0556976 0.253402 0.0283684 0.730083 -0.140679 -0.326853 -0.0174976 0.358863 -0.252216 -0.0092226 -0.288805 0.649186 0.0253659 0.670941 -0.28664 -0.390061 -0.0794312
难 -0.136519 0.022786 -0.368399 -0.429416 -0.165727 -0.0109584 -0.0189642 0.0341193 -0.307701 -0.0182481 -0.177619 0.0450637 0.0723669 0.47943 -0.0932919 -0.304298 0.0460593 0.0274047 -0.156965 0.0436811 -0.288912 -0.0562668 0.160613 0.490871 -0.240402 -0.0427601 -0.152641 -0.212023 -0.141924 0.20161 -0.140638 -0.318327 -0.408761 0.259059 -0.219242 -0.0547114 -0.0389779 -0.230061 -0.144561 0.02786 -0.0314705 -0.159376 -0.0230497 0.00474568 0.00510009 -0.109831 0.370597 0.21554 -0.502079 0.197242 0.169735 0.155161 -0.42525 -0.171102 -0.0382901 0.000689287 0.218519 -0.171197 0.00919735 0.0260944 -0.0359386 -0.517236 -0.361194 -0.171241 0.113835 0.372986 0.293969 -0.184229 -0.0154312 -0.0814499 0.635883 -0.198072 0.298741 0.118375 0.0535006 -0.193317 -0.304578 -0.0279412 -0.443558 -0.456235 0.00331861 0.0305627 0.308007 0.0450743 0.257225 0.00692533 0.697154 -0.157009 -0.315233 -0.00976055 0.302495 -0.319764 -0.0386411 -0.230382 0.593474 -0.000256078 0.693362 -0.310271 -0.388064 0.0356075
被 -0.0112577 0.116503 -0.209678 0.200909 0.291072 0.195418 0.0737137 -0.110365 -0.0757714 0.0654667 0.0149715 0.044502 0.281874 0.137352 0.00463059 -0.231832 0.370379 0.017623 0.0865451 0.0270483 -0.0733176 0.0133788 0.0297643 0.340708 -0.0321537 -0.0874126 -0.0133969 -0.281357 0.203532 0.153318 -0.217989 0.0936328 -0.016035 -0.197571 -0.0422522 -0.0895948 -0.0308073 -0.153043 0.000231834 -0.150445 0.179322 0.237894 -0.0143596 -0.27492 0.0588179 -0.101375 0.176461 0.0662506 0.0806156 0.0704606 0.358954 0.195828 -0.12811 -0.0588167 -0.268799 0.109331 0.193895 -0.0401407 0.0967242 0.0419742 -0.14836 -0.215411 -0.0571435 -0.125476 0.116201 0.275353 -0.0283727 0.0390549 -0.0391946 -0.0112743 0.244347 -0.0389941 0.0450432 -0.181195 0.0240809 -0.034358 -0.166096 -0.198034 -0.112074 -0.0248408 -0.00747167 0.0600319 -0.046088 -0.104387 0.141061 0.0723391 0.298021 -0.211858 -0.357303 0.129016 0.217632 -0.357145 0.0129283 -0.329683 0.117967 -0.0280795 0.254428 -0.175855 0.0944055 0.0502182
求 -0.0453544 0.0249873 -0.673895 0.161598 0.240147 0.188487 -0.00831158 -0.104395 -0.128599 0.227775 -0.194871 0.0872148 -0.101322 0.225474 -0.0903808 -0.104658 0.0703189 0.146643 -0.0399884 0.021539 -0.189114 0.0387636 0.0346497 0.0305011 -0.241865 0.502164 -0.0348148 -0.216491 -0.0673665 0.0280739 -0.0824141 -0.0307596 -0.237132 0.118848 0.101795 -0.0189854 -0.196108 -0.193836 -0.0116615 -0.242784 0.0348665 0.497121 -0.0507283 -0.0225078 0.0642355 -0.0954171 0.136174 0.169721 -0.175822 0.184584 0.127051 0.300169 -0.107444 0.00529608 -0.130635 0.0699238 0.24227 -0.362063 -0.214148 0.0932968 -0.0222712 -0.482636 0.10465 -0.0673539 0.055477 -0.0136857 -0.120275 -0.125769 -0.151731 0.0582273 0.136014 -0.047129 0.132221 0.217396 -0.126418 -0.170729 -0.192558 -0.120813 -0.350782 -0.26382 0.0349323 0.0420827 0.125554 -0.0124289 0.0561464 -0.00542369 0.0365873 -0.282131 -0.208967 -0.0870525 -0.0638357 -0.162421 -0.298391 -0.327975 0.0679735 0.0168479 0.362256 -0.434403 0.0900451 0.0503042
问 -0.0081244 0.12546 -0.251224 0.0562472 0.154139 0.165678 0.0847711 -0.108447 -0.0661838 0.0654387 0.0887781 -0.0761743 0.158249 0.33679 -0.0235449 -0.142019 0.23273 0.12175 -0.0325493 0.0187307 -0.167954 -0.0484938 0.0820807 0.189748 -0.0451598 0.109156 0.0852352 -0.254854 0.23447 0.141568 -0.0878611 -0.0182969 0.0456424 -0.150615 0.114318 -0.118139 -0.0875991 -0.039107 0.0409337 -0.0528854 0.00291086 0.297352 0.00476158 -0.203368 0.0837709 -0.142042 0.114112 0.0761063 0.0394895 0.038588 0.254308 0.0475024 -0.321486 -0.156186 -0.0907728 0.125396 0.206379 -0.081759 0.0613086 0.199409 -0.144342 -0.339366 -0.0580572 -0.0419878 0.0948509 0.304694 0.0660342 -0.0958365 0.0324885 0.0798534 0.282011 -0.0957001 0.0600153 -0.191201 0.0283714 0.0839597 -0.153675 -0.0781415 -0.0795766 -0.091279 -0.0341246 0.0296053 -0.0930306 -0.0299419 0.108096 0.0513582 0.2778 -0.196274 -0.23873 0.231017 0.269883 -0.207613 -0.165826 -0.290952 0.18242 -0.0876391 0.27511 -0.213868 0.113268 0.133506
大神 0.0905835 0.0338819 -0.74779 0.159091 0.172243 -0.206887 0.224264 -0.0842507 -0.153262 0.0922915 0.08092 0.00622168 0.353007 0.248913 0.0161379 -0.00796864 0.164263 0.0551957 0.0941405 0.104699 -0.220157 -0.287889 0.16188 0.218864 0.00646705 0.324812 0.18265 -0.366641 -0.0384536 0.110203 0.0694174 -0.0385996 -0.197457 0.0827829 0.207326 -0.229417 -0.0338294 -0.267765 0.0392881 -0.0982499 -0.11991 0.356094 0.102398 -0.280827 -0.0186441 -0.0173835 0.349891 0.338255 0.0599818 0.354468 0.320192 0.0476015 -0.205416 -0.253975 -0.0338861 0.162271 0.321665 -0.0327749 -0.0259345 -0.0497032 -0.111037 -0.338893 0.04076 -0.295746 0.0560283 0.248609 0.00938485 -0.17749 -0.165722 0.137589 0.231961 -0.0483503 0.26259 -0.0686606 -0.0862656 -0.272885 -0.107202 0.145149 -0.0109327 -0.24833 -0.0996843 0.194211 0.109947 -0.0589477 0.0952614 -0.0169306 0.243696 -0.365257 -0.548233 0.357062 0.0927938 -0.155853 -0.094015 -0.313646 0.0348207 -0.233234 0.29064 -0.385262 -0.178295 -0.0407064
怎么 -0.0231327 0.0938471 -0.239291 0.144478 0.247768 0.216603 -0.0449669 -0.175888 0.00230195 -0.022831 0.112495 0.010372 0.155591 0.216592 0.00122776 -0.228731 0.348817 0.0936674 0.0253452 0.0143665 -0.1062 -0.0455751 0.0483089 0.247874 -0.122605 -0.00654664 -0.0250302 -0.218096 0.107246 0.0823229 -0.196626 -0.0360081 -0.0280568 -0.161176 0.0261262 -0.152615 -0.0238226 -0.138193 0.0678723 -0.0263263 0.112146 0.341654 -0.0614815 -0.24847 0.0510163 -0.25096 0.110957 0.140694 0.0355543 0.0686014 0.255725 0.208947 -0.241628 -0.129151 -0.1797 0.105877 0.14568 -0.137119 -0.0195887 0.0544842 -0.181414 -0.244398 -0.122595 -0.0372399 0.0886256 0.223689 -0.0442061 0.074459 -0.0549454 0.051925 0.197334 -0.0664224 -0.00559664 -0.0429844 0.0274303 0.0197581 -0.0888171 -0.196557 -0.19551 -0.0466065 0.0057185 0.0756418 -0.0736665 -0.0347188 0.0530868 0.0440121 0.315114 -0.160528 -0.231963 0.115395 0.201935 -0.306876 -0.069955 -0.311608 0.193354 0.00150314 0.304567 -0.220198 0.109912 0.103264
处理 -0.015081 0.0989401 -0.211501 0.149868 0.155239 0.151857 0.118806 -0.0586912 -0.0479953 0.0153124 0.060975 -0.0623615 0.166204 0.310701 -0.0731082 -0.0997061 0.244864 0.0790803 -0.00594685 0.0243288 -0.106541 -0.0244407 0.0612721 0.174779 -0.134578 0.0813186 0.053824 -0.210033 0.167385 0.127622 -0.157053 -0.0494761 0.0725246 -0.219533 0.13995 -0.0349677 -0.178938 -0.0440331 0.00669082 -0.135589 0.0709774 0.379126 -0.083645 -0.287557 0.0810034 -0.155279 0.00246128 0.179523 0.0330154 0.112044 0.26599 0.0530208 -0.258135 -0.0441464 -0.116572 0.0766621 0.264112 -0.119023 0.0818288 0.149398 -0.107302 -0.310038 -0.0185552 0.0254372 0.076417 0.299473 0.0859076 0.118721 0.0469155 0.0936377 0.250824 0.00430298 0.107412 -0.142954 -0.0280069 0.0508421 -0.168314 -0.0738054 -0.0733729 -0.100031 0.0301157 -0.00257275 -0.0242704 0.0326707 0.112069 0.0486086 0.327057 -0.167076 -0.198263 0.233898 0.210696 -0.192699 -0.122582 -0.312408 0.114445 -0.00271989 0.282413 -0.125566 0.124414 0.127723
? -0.0967783 0.0904273 -0.432008 0.129861 0.129902 0.122851 0.19903 0.0674772 -0.117291 0.164318 -0.0999218 -0.0277018 0.0728119 0.286188 -0.180815 -0.0370779 0.19227 0.0784016 0.0132779 -0.154843 -0.145482 0.048199 -0.0292984 0.0624656 -0.232166 0.298269 0.0737977 -0.209472 0.0675678 0.0610785 -0.225716 -0.0424935 0.025217 -0.141134 0.114919 0.0332218 -0.177341 -0.0464732 -0.040188 -0.310287 0.083798 0.375115 -0.0879022 -0.267114 0.0887113 -0.0413896 0.040757 0.265424 0.0606233 0.13615 0.222011 0.0865479 -0.229185 0.034266 -0.133336 0.0495974 0.307106 -0.220779 0.0146588 0.182342 -0.0300663 -0.387659 0.0301394 0.0400863 0.0895777 0.234093 0.0930644 0.122114 0.0675383 0.0978742 0.269376 0.0964771 0.173818 -0.00619552 -0.0757422 -0.0828261 -0.197898 -0.0466841 -0.163054 -0.0974067 0.0905244 0.000185495 0.0746511 0.0269912 0.158307 0.0072605 0.152522 -0.231055 -0.240946 0.213494 0.0477254 -0.130031 -0.102632 -0.293367 0.0217267 0.0308885 0.301785 -0.228386 0.0884261 0.060263
理想 0.242335 0.181408 -0.59491 -0.031637 0.161748 0.249939 0.176867 0.0908693 -0.313971 0.117774 -0.00546235 0.112442 0.22302 0.285184 0.125455 -0.0298132 -0.00525321 0.0808763 0.0748815 0.3295 -0.324768 0.123167 0.144057 0.270969 -0.134259 0.146704 -0.138866 -0.27622 0.260361 0.483113 0.231764 0.0518714 0.0488071 -0.102542 0.0600996 0.0347283 -0.32475 0.112589 0.138274 -0.235001 0.11952 0.452679 0.122684 -0.0505516 -0.00486865 -0.268498 0.306069 -0.208508 -0.352644 0.238277 0.10301 -0.131395 -0.121937 0.0668087 -0.0954787 0.301597 0.198407 -0.0792018 0.047369 0.179849 -0.151802 -0.448359 -0.0646784 -0.0793187 0.252955 0.00142578 -0.0255762 -0.349814 0.108552 0.062893 0.306022 0.00387374 0.0346404 -0.287677 -0.297004 -0.00119068 -0.101974 -0.252955 -0.163863 -0.306436 0.192949 0.102839 -0.0933468 -0.0972816 0.135621 0.0708362 0.0312471 -0.21366 -0.156553 0.194461 0.484112 -0.323811 -0.058943 -0.19348 0.0959006 -0.433332 0.0232205 -0.17147 0.246249 0.183392
请 0.127758 0.0845892 -0.606796 0.267651 0.330506 0.117001 0.155337 -0.239456 -0.0754266 0.186631 0.102242 0.164479 0.111229 0.0769801 0.0101247 -0.160514 0.145961 0.079694 0.043333 0.051053 -0.333594 -0.131663 0.0488911 0.157937 -0.072892 0.344432 -0.0571628 -0.27171 0.0558456 0.00419716 -0.0107142 -0.015849 -0.145614 -0.0437765 0.196786 -0.254005 -0.0529978 -0.21868 -0.0328579 -0.234896 -0.0670867 0.420651 0.0714091 -0.219388 -0.0526221 0.0202394 0.205885 0.164945 -0.112081 0.287953 0.344903 0.194865 -0.219405 -0.0937214 -0.0809289 0.143896 0.216158 -0.109478 -0.105932 0.00866899 -0.0401022 -0.253267 0.0425272 -0.0959999 -0.0347628 0.0555473 -0.190284 -0.0765304 -0.142733 0.0145536 0.169629 -0.0874674 0.18653 -0.0364903 -0.0741256 -0.132775 -0.140868 -0.0566111 -0.176244 -0.246775 -0.029834 0.197388 0.0780304 -0.155992 -0.0742293 -0.00744545 -0.02606 -0.324425 -0.316789 0.137571 0.0644817 -0.0704131 -0.0841839 -0.350758 -0.109313 -0.0836167 0.208738 -0.416812 -0.0169918 0.00891527
给 0.0185568 0.12317 -0.2141 0.127276 0.179436 0.32852 -0.0327171 -0.0929788 -0.0915496 -0.00703496 -0.0296694 -0.00202358 0.202521 0.312326 0.010573 -0.027185 0.271441 0.083643 0.0507814 0.0601444 0.00322452 0.00776409 0.150098 0.208832 -0.208307 -0.102725 -0.113793 -0.101004 0.110019 0.207066 -0.0932716 -0.0327568 0.0511394 -0.323086 -0.0264311 -0.00360131 -0.204594 -0.0703821 0.0628474 -0.120131 0.239784 0.371592 -0.168662 -0.241723 0.0491262 -0.305323 0.0215437 0.141779 -0.0865973 0.174833 0.152923 0.193609 -0.109002 0.0254493 -0.249293 0.186024 0.182997 -0.161404 0.0967426 0.0828365 -0.128309 -0.318523 -0.0815993 0.00485854 0.103667 0.214992 0.109 0.234396 -0.0327825 0.0322495 0.132932 0.102277 0.0788972 -0.098346 -0.124062 0.070101 -0.077885 -0.238442 -0.134807 -0.157582 0.100235 -0.100909 0.0171881 0.0278299 0.116418 0.0634246 0.406625 -0.0757591 -0.175394 0.118772 0.296198 -0.307016 -0.076273 -0.162217 0.21248 0.0118645 0.219311 -0.0231908 0.238895 0.101421
我 0.123985 0.0418061 -0.724944 0.191022 0.155691 0.0231134 0.064432 0.0018451 -0.175866 0.142992 -0.146467 0.046531 0.134659 0.262839 0.00770127 0.00542884 0.0953893 0.120362 0.0144784 0.169402 -0.128995 -0.00736784 0.151097 0.162898 -0.0901124 0.308327 -0.0219171 -0.257878 0.0180201 0.234666 0.0921286 0.0499143 -0.145922 -0.0399066 0.0805969 -0.0825222 -0.222409 -0.200855 0.086759 -0.220087 0.137344 0.526144 -0.0510957 -0.0884786 0.00776161 -0.132528 0.26075 0.0258103 -0.135509 0.271983 0.166133 0.156315 0.0200477 0.0177512 -0.180481 0.147205 0.232193 -0.199746 -0.0721262 0.0460667 -0.11373 -0.422064 0.013999 -0.207461 0.106361 0.0508093 -0.0743473 -0.224012 -0.10979 0.0537917 0.147519 0.0531866 0.139985 -0.095314 -0.180947 -0.14332 -0.0822968 -0.148705 -0.186039 -0.273847 0.140367 0.0807908 0.0152058 -0.02675 0.0987176 -0.00620001 0.0849254 -0.341486 -0.34069 0.158615 0.0965285 -0.290486 -0.17876 -0.203979 0.0444373 -0.197415 0.203597 -0.28305 0.108818 0.0147629
一个 0.135814 0.071894 -0.766731 0.117388 0.21385 -0.11009 0.153499 -0.0734538 -0.203567 0.10933 -0.0633692 0.152463 0.349374 0.208565 0.0210791 -0.124592 0.116334 0.0617835 0.04707 0.173023 -0.248088 -0.256649 0.198068 0.350246 0.0342182 0.237339 0.0142853 -0.332275 -0.0282653 0.21758 0.0735139 0.0687616 -0.256692 -0.00507944 0.0156249 -0.23795 -0.0554959 -0.228335 0.0719172 -0.20725 0.011291 0.238732 0.11856 -0.180637 -0.0132301 0.00988566 0.453625 0.0729545 -0.0572669 0.326082 0.279132 0.0955604 -0.0622866 -0.159034 -0.100942 0.136945 0.28268 0.00568184 -0.0140334 -0.101031 -0.148291 -0.31105 -0.0460712 -0.302465 0.105599 0.158489 -0.0210667 -0.271779 -0.0840967 0.0493343 0.24855 -0.0584131 0.193542 -0.153242 -0.0602286 -0.222117 -0.0383802 -0.0431807 -0.0725443 -0.297626 0.0575213 0.217572 0.0618501 -0.0659126 0.136838 -0.00653609 0.185341 -0.371257 -0.547381 0.232392 0.148405 -0.353523 -0.00644379 -0.29618 0.0867843 -0.249234 0.257821 -0.355347 -0.195693 -0.0461907
继续 0.169672 0.0399247 -0.533861 0.111846 0.190182 -0.100223 0.291811 -0.0701284 -0.069795 -0.0487946 0.126802 -0.00296226 0.209672 0.369908 0.0366408 -0.0808368 0.207044 0.0374257 0.0846691 0.136509 -0.288961 -0.13153 0.00470127 0.182903 -0.00412751 0.18337 0.148784 -0.248856 0.160163 0.133497 0.0340631 -0.0420604 0.038155 -0.0526029 0.246692 -0.0839861 -0.159614 -0.00907653 0.0379369 -0.197978 -0.0610006 0.407083 0.11452 -0.260847 0.0352224 -0.0539072 0.154103 0.181675 0.106114 0.176185 0.147161 -0.0137099 -0.304271 -0.106561 -0.0426893 0.160026 0.271624 -0.0378411 0.0467649 0.0346918 -0.126431 -0.296737 0.0104245 -0.0254284 0.101011 0.28766 0.00666049 -0.106734 0.0457909 0.118747 0.279493 -0.0757213 0.164806 -0.157076 -0.0828738 -0.046522 -0.120717 -0.0513424 -0.0370681 -0.158931 0.0223799 0.150099 0.00555804 -0.0328797 0.193318 0.0744405 0.158749 -0.244103 -0.256998 0.344811 0.233023 -0.166114 -0.127172 -0.38515 0.0678185 -0.140212 0.245828 -0.273581 -0.0561918 0.10012
活 -0.026859 0.120867 -0.642728 0.232118 0.263969 0.463037 -0.201319 -0.15131 -0.242267 0.168731 -0.350377 0.187673 0.0368579 0.170423 0.00228715 -0.00211882 0.175786 0.0315222 -0.000402602 0.309215 0.0414083 0.0802394 0.329877 0.0564271 -0.17066 0.24075 -0.311833 -0.0663806 -0.0537852 0.0461584 0.0560636 -0.167931 -0.309486 -0.158665 0.120064 -0.0547766 -0.441681 -0.380333 -0.102226 -0.281182 0.433889 0.566547 -0.20501 -0.0466144 -0.013702 -0.16078 0.188737 0.102554 -0.310744 0.348918 0.046299 0.429948 0.114915 0.26944 -0.478209 0.138079 0.177265 -0.390729 -0.178517 -0.0409093 -0.0569295 -0.34627 -0.0821782 -0.0166427 0.0983104 -0.275173 -0.133233 0.342175 -0.064297 0.0598327 -0.0625198 0.271663 0.338255 0.224193 -0.209017 -0.175534 -0.0819596 -0.345328 -0.301718 -0.465448 0.147246 -0.134143 0.0553911 -0.0779951 0.0993146 -0.0738862 0.282131 -0.214813 -0.203034 -0.0861302 -0.110608 -0.309237 -0.284094 -0.0836708 0.040431 -0.016178 0.225641 -0.178388 0.0917274 -0.229402
下去 -0.0842601 0.0427225 -0.711724 0.230844 0.240538 0.379326 -0.049494 -0.266403 -0.199677 0.239243 -0.338006 0.149198 0.059274 0.202813 -0.0934278 0.0058378 0.169614 0.0960245 0.0463074 0.284945 -0.0133329 0.0945042 0.241604 0.0497398 -0.143915 0.274097 -0.323939 0.0212121 -0.0303896 0.00733554 -0.00899033 -0.167078 -0.365736 -0.045082 0.184942 0.0565659 -0.431866 -0.396591 -0.156796 -0.288133 0.305126 0.67218 -0.126079 -0.156388 -0.0110509 -0.126641 0.110476 0.184303 -0.208395 0.388548 0.0440154 0.336818 0.20499 0.259532 -0.509958 0.0654399 0.121418 -0.415283 -0.10433 -0.0664931 -0.0485633 -0.271033 -0.10719 -0.0620844 0.0745995 -0.199444 -0.123914 0.409621 -0.101744 0.0402007 -0.0303673 0.324857 0.372648 0.178615 -0.183019 -0.170597 -0.168536 -0.29984 -0.217068 -0.559419 0.157567 -0.213262 0.105753 -0.0791099 0.0924206 -0.0866393 0.276516 -0.194233 -0.25826 -0.0611677 -0.066852 -0.192579 -0.274129 -0.109316 0.0104533 0.00381347 0.251796 -0.0995119 0.124221 -0.290259
理由 -0.102916 0.118441 -0.232007 0.0280485 0.331017 0.40914 0.0990132 -0.417495 -0.131614 -0.0839886 0.132093 0.121859 0.0932048 0.400485 -0.0405669 -0.23311 0.295123 0.205093 0.0184378 0.00462194 -0.245779 -0.245236 -0.0073124 -0.00396257 -0.25824 0.152034 -0.0852432 0.0211604 0.129002 -0.122874 -0.105673 0.0398435 -0.0202262 -0.177085 0.06348 -0.263352 0.00817239 0.0672362 0.0630517 -0.252375 -0.0835858 0.232811 0.0962878 -0.137867 0.00910738 -0.283249 0.079921 0.16544 -0.236653 0.169761 0.185038 0.0726491 -0.39262 -0.16259 -0.108452 0.19203 0.184969 -0.161177 -0.107672 0.048059 0.0863371 -0.246583 0.0296218 0.0801354 0.113796 0.142575 0.23937 0.12986 -0.112194 -0.0384625 0.176555 0.00691393 -0.0102608 0.19537 0.051597 0.153165 0.0223827 -0.227173 -0.141174 -0.165896 0.0358852 0.108641 0.24412 0.0686392 -0.162329 -0.0861042 0.263201 -0.102345 -0.0485701 0.0725601 0.202782 -0.163944 -0.204897 -0.321282 0.0831045 0.0689513 0.381219 -0.320849 0.00397201 0.00341341
人 -0.0170009 0.114502 -0.491348 -0.0435154 0.0627133 0.335039 -0.00647206 -0.0996703 -0.152608 0.206266 0.00200212 0.0729816 -0.157085 0.380926 0.144396 -0.245102 0.0496463 0.168369 -0.176402 0.0591828 -0.411283 0.0476352 0.0279719 0.164447 -0.103924 0.37157 -0.0204883 -0.264164 0.275189 0.258118 0.0336724 0.0134135 -0.048014 0.00214775 0.139832 0.00805823 -0.0737918 0.0628303 0.0703422 -0.246115 0.0121805 0.436248 0.131543 -0.0715579 0.0562171 -0.0994055 0.248393 -0.0468468 -0.17166 -0.0621939 0.0265418 0.0993843 -0.282936 -0.0618192 -0.0680095 0.147887 0.143116 -0.265542 -0.0883012 0.376432 -0.123899 -0.509539 -0.00813004 0.0906716 0.118946 0.0872929 -0.1119 -0.310953 -0.0338664 0.0195645 0.348432 -0.0984573 -0.055578 -0.0716 -0.0313265 0.0834595 -0.139779 -0.166338 -0.3202 -0.176428 -0.0151119 0.151679 -0.0772341 -0.169268 0.0624383 0.0346477 -0.00773876 -0.0898856 0.015221 -0.0262905 0.196133 -0.314804 -0.357397 -0.352764 0.154701 -0.0178177 0.260937 -0.435368 0.237615 0.18844
可以 -0.0718951 0.148745 -0.187101 0.154524 0.305457 0.527201 0.0590143 -0.370835 -0.049718 0.00927077 0.191015 0.122401 -0.0743837 0.408112 -0.0671062 -0.273129 0.202392 0.235652 0.13003 -0.0267159 -0.295929 -0.133132 0.0170188 0.0835263 -0.178947 0.0722286 -0.131438 -0.0806962 0.0236378 -0.131709 -0.237884 -0.0253054 -0.0038209 -0.0953178 -0.0527778 -0.150619 0.11588 0.111391 0.188002 -0.275612 -0.101098 0.289371 0.0391237 -0.35608 0.059727 -0.278168 0.0810805 0.113382 -0.0184934 0.30105 0.175224 0.0298698 -0.372982 -0.15388 0.0342 0.0795886 0.195856 -0.135128 -0.184003 0.0052291 0.0922 -0.246752 0.0789894 0.194131 0.050744 0.0981232 0.21568 0.0828808 -0.0491451 -0.0757866 0.157095 -0.0656506 0.033394 0.148615 0.0738493 0.202405 0.0992859 -0.218526 -0.160808 -0.172837 0.085675 0.165562 0.107483 0.042568 -0.25422 0.059227 0.159776 -0.149793 -0.0691477 0.16388 0.101405 -0.168386 -0.116112 -0.41337 0.114073 0.162087 0.528869 -0.285056 0.114206 0.20995
脚 0.0406326 0.0604443 -0.331494 0.119895 0.186291 0.243788 -0.0549654 -0.176473 -0.113183 0.112613 0.0571227 0.0247155 0.20259 0.298627 0.0531686 -0.0445428 0.169438 0.147782 -0.0277006 -0.0100772 -0.0277066 -0.0896188 0.125672 0.173468 -0.151284 0.0495292 -0.0204688 -0.208085 0.130021 0.123372 -0.0314122 0.0338767 -0.0323013 -0.183002 0.0486223 -0.0927441 -0.0632726 -0.0959703 0.0969865 -0.0966251 0.0943293 0.347273 -0.0876353 -0.175244 0.0692558 -0.213599 0.0856137 0.0985228 -0.0380622 0.116253 0.243728 0.149857 -0.147078 -0.138343 -0.160345 0.148776 0.212126 -0.148556 0.0425241 0.150832 -0.0865337 -0.371176 -0.0116794 -0.11019 0.0637976 0.248799 0.0391496 -0.0666736 -0.101749 0.00668592 0.178802 -0.0392774 0.0651427 -0.0672255 -0.0650284 -0.0145264 -0.0764417 -0.12875 -0.100851 -0.0965656 0.0233975 0.00157648 0.021463 0.0257338 0.044531 0.018654 0.258474 -0.14332 -0.215267 0.0919498 0.179997 -0.258177 -0.195305 -0.172961 0.112546 -0.0407319 0.2383 -0.18262 0.166101 0.111326
小 0.11942 0.0817388 -0.569903 0.183816 0.188123 0.0432776 0.0867659 0.011253 -0.155785 0.180579 -0.0677965 0.0153675 0.193143 0.189902 0.0345533 -0.0978805 0.123541 0.0661204 -0.0276836 0.118138 -0.143356 0.0330933 0.0800521 0.212651 -0.0551945 0.176666 0.0821922 -0.375432 0.124396 0.234618 0.00241747 0.101963 -0.0714989 -0.0149517 0.0802477 -0.0830024 -0.141066 -0.183832 0.0592063 -0.186174 0.101775 0.397308 -0.0289184 -0.132768 0.0285217 -0.0244366 0.235857 -0.0036932 -0.0797693 0.172857 0.265984 0.071824 -0.097186 -0.0744361 -0.138157 0.0488017 0.239324 -0.104864 0.0363689 0.0984857 -0.11561 -0.406145 0.0194342 -0.207457 0.0929818 0.159233 -0.0749403 -0.29584 -0.0533818 0.0405377 0.258605 -0.0542236 0.101843 -0.183111 -0.0718142 -0.132687 -0.189322 -0.116517 -0.129302 -0.131991 0.0306036 0.0792712 -0.0362368 -0.0277813 0.104465 0.0237443 0.129448 -0.338447 -0.345313 0.169242 0.155309 -0.299571 -0.194322 -0.277635 0.0594974 -0.170614 0.212774 -0.319297 0.111248 0.0941874
买 0.158966 0.0931524 -0.563296 0.0583337 0.27918 0.117729 0.262862 -0.0374196 -0.14452 0.130712 -0.0767259 0.0588487 0.0624719 0.204715 -0.0265047 -0.153206 0.107205 0.0195689 0.0481002 0.186629 -0.343199 0.129433 0.0199592 0.213005 -0.097791 0.316091 0.0319237 -0.210627 0.192954 0.175708 0.0126452 -0.00144558 -0.0204345 -0.0193528 0.227996 0.0321673 -0.298276 -0.00183322 0.0480865 -0.25411 0.0106387 0.481342 0.0631418 -0.128587 0.030728 -0.159719 0.212688 0.0159663 -0.0960266 0.168591 0.12725 0.0600197 -0.20925 0.121837 -0.0747512 0.193893 0.24383 -0.168365 -0.0238149 0.0977404 -0.0118948 -0.366091 -0.0233599 0.059144 0.0872687 0.0152542 -0.056422 -0.148467 0.0434078 0.0449946 0.29623 0.00106227 0.0303817 -0.161802 -0.151713 -0.0517896 -0.12577 -0.182151 -0.195712 -0.321434 0.16494 0.0769258 0.00434973 -0.0728001 0.170003 0.0718908 0.0327851 -0.272521 -0.133194 0.192753 0.265356 -0.173802 -0.116838 -0.351759 0.0321873 -0.172716 0.187421 -0.325566 0.165426 0.104361
歧视 0.164102 0.126098 -0.601098 -0.125604 0.107751 -0.0789743 0.156696 0.0957837 -0.23189 -0.00434206 -0.0434713 0.107871 0.356945 0.329353 0.094405 -0.141477 0.110324 -0.0147145 -7.1654e-05 0.285671 -0.306898 -0.090086 0.156566 0.436862 -0.00201263 0.0448627 -0.000588945 -0.361196 0.0836629 0.380828 0.109846 0.0206241 -0.123718 -0.00872975 -0.0127958 -0.0802054 -0.116357 -0.0634684 0.0677367 -0.142916 0.0590755 0.12267 0.180991 -0.112958 -0.0367947 -0.104684 0.469528 -0.0126938 -0.166853 0.231013 0.187906 -0.0976225 -0.170541 -0.0833631 -0.113568 0.211377 0.244863 0.013148 0.123113 -0.00465023 -0.184762 -0.304323 -0.115976 -0.217186 0.261101 0.16301 0.0476071 -0.364724 0.0124883 0.0633806 0.440103 -0.0919542 0.165773 -0.271728 -0.0968236 -0.0904557 -0.103451 -0.13218 -0.0948742 -0.372535 0.0968788 0.161338 -0.0238029 -0.0601224 0.222692 0.0684996 0.34888 -0.253093 -0.389598 0.238588 0.417364 -0.405517 0.000140891 -0.246286 0.263876 -0.35512 0.238463 -0.26834 -0.10179 0.08989
多 0.0224988 0.137039 -0.322437 0.0345247 0.190706 0.200645 0.188431 -0.026801 -0.111628 0.0447148 -7.77974e-05 0.00112443 0.157972 0.26671 -0.0580965 -0.167872 0.22214 0.0535068 0.0418139 0.0921093 -0.222343 -0.0214885 0.052001 0.246442 -0.121325 0.0907665 -0.0217275 -0.200733 0.187662 0.179944 -0.128703 -0.0693083 0.0207518 -0.18044 0.0538489 -0.0465173 -0.145508 -0.021662 0.0355114 -0.147841 0.0421773 0.269763 0.0366306 -0.232786 0.0351135 -0.147606 0.135412 0.0769873 -0.0623565 0.113551 0.175483 0.0315854 -0.277886 -0.027181 -0.0931624 0.146689 0.244551 -0.0748546 0.0585921 0.122207 -0.0861757 -0.303182 -0.100152 0.0209914 0.161344 0.198932 0.0910235 0.0272664 0.102626 0.067156 0.299895 -0.0259494 0.0862711 -0.18486 -0.0496542 0.00637004 -0.134806 -0.157635 -0.153337 -0.214098 0.0970447 0.0418521 -0.0339439 -0.0355623 0.149124 0.0593288 0.276185 -0.176296 -0.220243 0.266873 0.304606 -0.222323 -0.0304326 -0.311531 0.153313 -0.0940195 0.237567 -0.150548 0.082229 0.0878291
可怕 0.0487369 0.13431 -0.316691 0.00494162 0.226482 0.297135 0.125588 0.0386073 -0.165941 0.101689 -0.0645691 0.0676048 0.161005 0.311615 0.0163545 -0.181957 0.201817 0.0384466 -0.0143243 0.100886 -0.16938 0.0549852 0.0110621 0.171133 -0.123779 0.0299737 -0.0559501 -0.140647 0.233079 0.203961 -0.0569125 -0.0345436 0.0391179 -0.179159 0.0370307 0.0252395 -0.189719 0.0161232 0.00224142 -0.213666 0.167975 0.312796 0.00163523 -0.123592 0.0338747 -0.137768 0.136711 -0.0209189 -0.101854 0.0922917 0.154035 0.0456813 -0.262779 -0.0021935 -0.22169 0.13242 0.184775 -0.0547932 0.0803235 0.162527 -0.0441403 -0.283605 -0.112581 0.00674397 0.226646 0.152465 0.0985014 -0.0749269 0.124425 0.00628045 0.303028 -0.00898561 0.063309 -0.179569 -0.0247716 0.0587171 -0.188875 -0.25213 -0.154696 -0.185037 0.152265 -0.0214549 -0.0543814 -0.0517138 0.144042 0.0630651 0.235038 -0.176601 -0.153202 0.175896 0.310087 -0.246988 -0.10921 -0.23018 0.156026 -0.0859617 0.207999 -0.14286 0.197721 0.135505
和 0.135263 0.13627 -0.390251 0.164086 0.213484 0.19275 -0.0121815 -0.0711352 -0.105798 0.0638744 0.0225882 0.0412588 0.279643 0.221423 0.0507446 -0.103661 0.212603 0.113869 0.0472123 0.0935795 -0.0584005 -0.0588348 0.142898 0.248897 -0.0779912 0.0406022 -0.0380573 -0.253196 0.127125 0.263031 -0.0209137 0.0863559 0.00241879 -0.228069 -0.0117911 -0.115963 -0.0987708 -0.103327 0.135197 -0.15507 0.132243 0.369828 -0.0506091 -0.240544 0.0324762 -0.181825 0.193335 0.026119 0.0059051 0.192243 0.268187 0.12132 -0.0584198 -0.0598547 -0.148258 0.140843 0.18641 -0.0437991 0.0560751 0.0416322 -0.159729 -0.326627 -0.03225 -0.138411 0.117753 0.18825 -0.0027009 -0.0657052 -0.0380723 0.00722694 0.173741 0.016716 0.0463194 -0.188167 -0.0888717 -0.0252967 -0.0358293 -0.167077 -0.0446031 -0.0817191 0.0584855 0.0462217 -0.0263609 -0.0413044 0.0928523 0.0418653 0.223806 -0.244545 -0.317073 0.207416 0.247818 -0.338781 -0.0691245 -0.205322 0.109293 -0.130915 0.16355 -0.138857 0.129671 0.0737137
穆斯林 0.144075 0.0815227 -0.352267 -0.0831668 0.165751 0.192036 0.111674 -0.0588821 -0.162854 -0.0543131 0.0904588 -0.00340498 0.146475 0.382545 0.0102236 -0.219846 0.219226 0.079491 -0.00193981 0.173751 -0.341901 -0.0817666 -0.0732475 0.148547 -0.0206687 0.0998985 -0.00891323 -0.114764 0.285261 0.191677 0.104824 -0.128022 0.03723 -0.144776 0.174487 -0.0908842 -0.125465 0.107971 0.05802 -0.109741 -0.0740952 0.329103 0.0413323 -0.0947992 0.0121571 -0.195123 0.116082 0.0173623 -0.123541 0.0452811 0.110719 -0.0522447 -0.453391 -0.121663 -0.116296 0.231024 0.175041 0.00739535 0.0648402 0.229192 -0.088188 -0.272832 -0.101567 -0.0131292 0.205085 0.162593 0.102107 -0.195564 0.135736 0.0482984 0.341149 -0.160149 0.0649506 -0.241561 -0.0376421 0.130576 -0.125326 -0.203645 -0.146652 -0.251143 0.057291 0.0363861 -0.0718036 -0.0735592 0.107143 0.0696713 0.264929 -0.146942 -0.0879375 0.313479 0.439395 -0.0786801 -0.143041 -0.306114 0.210731 -0.116163 0.139022 -0.236237 0.118986 0.180842
之间 0.0841291 0.163547 -0.329505 -0.0494696 0.177304 0.309339 0.119389 -0.00144087 -0.182367 0.0555154 0.00346478 -0.00176428 0.100022 0.374347 -0.00390221 -0.110713 0.134126 0.0791438 -0.0130895 0.196255 -0.277556 0.0440397 0.0276664 0.149599 -0.152829 0.0674601 -0.113119 -0.141339 0.199291 0.273056 0.0396503 -0.116379 0.0448836 -0.170471 0.116214 -0.00149771 -0.239022 0.0728274 0.0625329 -0.0859708 0.0498552 0.334527 -0.0195242 -0.11028 -0.00209865 -0.233622 0.11257 0.0104839 -0.261995 0.11759 0.074799 -0.0233891 -0.319857 0.0217815 -0.111236 0.219368 0.164396 -0.111264 0.0314349 0.215683 -0.106176 -0.340754 -0.0716332 0.0430679 0.220969 0.0835822 0.0953593 -0.082029 0.124589 0.057052 0.281965 -0.00890824 0.0756081 -0.229301 -0.126347 0.139382 -0.158611 -0.201249 -0.166722 -0.31871 0.121994 -0.0482127 -0.0671275 -0.0341971 0.0910734 0.0380174 0.284343 -0.120414 -0.0500893 0.260412 0.414053 -0.132429 -0.126098 -0.224206 0.203537 -0.174325 0.157367 -0.123683 0.202106 0.181201
过 -0.035826 0.0738913 -0.240421 0.113364 0.233617 0.381202 -0.202371 -0.281504 -0.0757703 0.0348054 0.0655707 0.1286 0.0940127 0.315513 -0.00776072 -0.142392 0.306915 0.154868 0.0685556 -0.0340358 -0.128359 -0.185453 0.097776 0.111647 -0.258287 0.00439673 -0.179141 -0.0163846 0.0548917 0.0451165 -0.0827368 -0.0802283 -0.0666177 -0.281783 -0.0238011 -0.160042 0.00531783 -0.064601 0.0363859 -0.106805 0.0619538 0.294305 -0.0889373 -0.187749 -0.00355025 -0.297137 0.0624472 0.235795 -0.0930294 0.199958 0.201568 0.276912 -0.264779 -0.113406 -0.214587 0.218524 0.139352 -0.131739 -0.0441876 0.045641 -0.0555027 -0.262991 -0.0570629 -0.00493877 0.06648 0.185566 0.115967 0.207828 -0.114866 -0.0571271 0.0993358 -0.00563926 0.0830063 0.0772275 -0.0182625 0.120209 -0.0223805 -0.219713 -0.208605 -0.179613 0.0303439 0.000489619 0.122634 -0.0165558 -0.0545108 -0.0320987 0.34269 -0.0549883 -0.161215 0.0667421 0.205341 -0.162667 -0.0857484 -0.227166 0.185982 0.114999 0.264722 -0.130232 0.108208 0.0479559
相处 0.0782087 0.117601 -0.433908 0.0856965 0.127853 0.330058 -0.0992022 -0.0627017 -0.149049 0.139506 0.0374054 0.0361201 0.0899847 0.306602 0.127448 -0.0771702 0.0601711 0.16984 -0.106215 0.117408 -0.16134 0.0337808 0.129666 0.156261 -0.143691 0.110993 -0.0838283 -0.274182 0.127725 0.263595 0.0414601 0.052212 -0.0154955 -0.131828 0.0504607 -0.0445027 -0.137667 -0.0386576 0.101118 -0.158815 0.12714 0.428722 -0.0300562 -0.0879746 0.0399687 -0.21618 0.138092 -0.0519359 -0.186273 0.0956103 0.166921 0.0825447 -0.136801 -0.0837675 -0.132111 0.138543 0.150551 -0.202951 0.0284773 0.218284 -0.164734 -0.447938 -0.015685 -0.0731695 0.120082 0.0991385 -0.0559497 -0.248877 -0.0924592 0.031897 0.208494 -0.0461555 0.0217012 -0.108474 -0.111666 0.0249355 -0.12241 -0.202435 -0.141574 -0.13995 0.0338497 0.0347189 -0.0648461 -0.0399066 0.0347797 0.0180193 0.164589 -0.151586 -0.0981095 0.00820756 0.264946 -0.318738 -0.220388 -0.159504 0.145232 -0.120416 0.144299 -0.255422 0.286683 0.162305
故事 -0.0504619 -0.00269025 -0.535754 0.206123 0.225897 0.159544 -0.086767 -0.292654 -0.112445 0.124052 0.096789 0.161401 0.140591 0.238577 0.00351048 -0.110566 0.209476 0.186914 0.0356389 -0.0860383 -0.146801 -0.330177 0.090156 0.0684439 -0.183934 0.22313 -0.0352131 -0.190748 -0.0101186 -0.0740009 -0.0486148 0.0210124 -0.156599 -0.0894692 0.0588457 -0.264354 0.0719824 -0.17285 0.0186528 -0.242529 -0.0120775 0.310001 0.0072078 -0.2066 8.64061e-05 -0.0549235 0.127791 0.28965 0.0135352 0.227257 0.319325 0.279422 -0.177548 -0.267331 -0.143644 0.152714 0.241982 -0.138189 -0.0116502 0.0692425 -0.0465832 -0.331281 0.0819409 -0.14771 -0.00348768 0.187784 0.000371463 0.0339183 -0.217295 -0.0171837 0.13504 -0.0785409 0.203972 0.172671 -0.0400369 -0.108683 -0.0416165 -0.0361455 -0.163364 -0.108417 -0.0459753 0.193519 0.180382 -0.0581644 -0.0896748 -0.00697718 0.170896 -0.194937 -0.322334 0.0320426 -0.0105613 -0.165504 -0.141053 -0.321075 -0.0147954 0.0783977 0.264509 -0.373743 -0.0462877 0.000133069
评价 0.254493 0.153662 -0.662983 0.018145 0.186396 0.122895 0.189451 0.0249492 -0.261272 0.126132 -0.0129627 0.0862562 0.321224 0.228912 0.196443 -0.135706 0.0299341 0.0866483 0.0224155 0.30494 -0.322466 0.0277939 0.160795 0.370028 0.0321415 0.141427 0.0241808 -0.39411 0.270652 0.46476 0.199005 0.148869 -0.0262977 -0.0757576 0.0243932 -0.0510502 -0.200985 -0.0358314 0.125335 -0.255978 0.117145 0.387593 0.165666 -0.118969 0.0197635 -0.116852 0.405641 -0.199047 -0.185342 0.186886 0.21128 -0.0831142 -0.0884522 -0.0522774 -0.102106 0.21178 0.234482 -0.0153166 0.112759 0.11883 -0.180652 -0.427063 -0.0548803 -0.208297 0.216121 0.128503 -0.0842759 -0.485786 0.0214444 0.0497674 0.371031 -0.0672542 0.0490107 -0.37977 -0.167374 -0.0847092 -0.0913515 -0.20305 -0.0931875 -0.243967 0.100474 0.175778 -0.104601 -0.126347 0.199172 0.0722965 0.0777519 -0.297901 -0.305381 0.210251 0.415338 -0.464069 -0.0978707 -0.263072 0.0932798 -0.413464 0.101371 -0.306297 0.159001 0.133292
《 -0.140473 0.032892 -0.514005 0.0802618 0.164516 -0.0315192 0.117086 -0.20397 0.0398234 0.132819 0.0645421 0.00055086 0.0252335 0.376683 -0.183411 -0.242243 0.305423 0.133316 -0.116337 -0.221129 -0.240352 -0.302233 -0.0297385 0.0379785 -0.226149 0.462998 0.100249 -0.145343 -0.188218 -0.228721 -0.218623 -0.25185 -0.330826 0.151761 0.216942 -0.249175 0.0809395 -0.159448 -0.0831133 -0.00849584 -0.223095 0.25005 0.0137702 -0.189007 0.0569762 -0.00603879 0.187101 0.459795 0.0638299 0.200739 0.240552 0.257308 -0.542744 -0.301579 -0.0350728 0.0378021 0.314667 -0.182072 -0.220669 0.0637512 0.00575514 -0.33007 -8.32484e-05 -0.0217149 0.0124048 0.268641 0.0895825 -0.0420879 -0.10738 0.0736476 0.243495 -0.188689 0.305393 0.278544 0.146464 -0.122663 -0.20148 0.040763 -0.24455 -0.240036 -0.123107 0.0506528 0.178547 0.0253282 0.0249191 -0.102016 0.256743 -0.31559 -0.33185 0.178465 -0.0459371 0.0775216 -0.270138 -0.430703 0.177622 0.0915672 0.584179 -0.494788 -0.247074 -0.0797326
致 0.0311565 0.0837598 -0.46672 0.0623841 0.0943112 0.157095 0.151696 0.0164135 -0.156761 0.17474 0.130535 -0.000990656 0.117625 0.292546 0.015628 -0.0914445 0.0767963 0.133985 -0.040987 0.16585 -0.278959 -0.0551554 0.143352 0.121606 -0.0635955 0.246246 0.0891273 -0.210699 0.13389 0.217358 0.0452289 -0.0227067 0.0302034 -0.0741976 0.207002 -0.0217474 -0.198134 0.00224011 0.0871913 -0.190641 0.0331 0.481835 0.124882 -0.184055 0.0567355 -0.188197 0.196228 0.0721258 -0.0269109 0.162513 0.170853 -0.0165292 -0.252354 -0.113185 -0.0283933 0.157727 0.276831 -0.193114 -0.00214953 0.187958 -0.125341 -0.385455 -0.0290651 0.00180611 0.123074 0.136393 -0.00417732 -0.132922 -0.0376594 0.173512 0.209528 -0.0208427 0.0574098 -0.135631 -0.0863159 0.00112153 -0.134005 -0.0734864 -0.106527 -0.194685 0.0335681 0.0978228 -0.0488625 -0.0594444 0.0953937 0.0402335 0.0568081 -0.199193 -0.134219 0.165187 0.251766 -0.226615 -0.164316 -0.232822 0.0457473 -0.227915 0.207088 -0.294028 0.123291 0.109416
青春 -0.0456291 0.105828 -0.183505 0.119699 0.280519 0.188522 0.142067 -0.0961374 -0.0475147 -0.00848797 0.0950808 0.146398 0.285333 0.30145 -0.0844583 -0.259995 0.37177 0.0317322 0.0375007 0.00853478 -0.128549 -0.150117 0.0439622 0.232125 -0.128358 -0.0699345 -0.0708964 -0.15106 0.0725927 0.0265794 -0.233683 -0.0108849 -0.0598098 -0.236997 0.0030898 -0.0922538 -0.0169389 -0.0986254 0.0423813 -0.0984037 0.116527 0.181581 0.0467753 -0.294732 0.040467 -0.146873 0.139866 0.188626 0.0677033 0.167486 0.327714 0.0954751 -0.323367 -0.171663 -0.196582 0.104469 0.212791 0.0314339 0.074166 0.0278786 -0.0533061 -0.0870399 -0.141466 0.0112851 0.202406 0.248265 0.105561 0.127536 0.062155 0.0361911 0.21923 -0.0360552 0.098309 -0.117507 0.0506602 0.0496768 -0.131085 -0.160473 -0.160056 -0.126822 0.0743999 0.0746202 -0.0564936 -0.050516 0.0742364 0.0854946 0.344849 -0.173109 -0.31962 0.237256 0.250572 -0.23647 0.0794075 -0.372435 0.115689 0.0238013 0.274415 -0.0994159 -0.00712803 0.0269119
还 0.0110707 0.163841 -0.300778 -0.120483 0.0326895 0.488732 -0.1564 -0.149013 -0.0864162 0.236467 0.179189 -0.00342905 -0.174554 0.456821 0.23801 -0.293865 0.086106 0.310465 -0.274218 -0.0045821 -0.346181 0.0430845 0.0444169 0.125818 -0.156727 0.222593 -0.0189807 -0.257203 0.354899 0.311001 0.0602159 0.0170548 0.0532185 -0.107016 0.101928 -0.0707992 0.0404194 0.104878 0.168511 -0.105455 0.0510881 0.418542 0.0531102 -0.0493132 0.078627 -0.227177 0.170209 -0.122216 -0.16574 -0.176849 0.0806168 0.03152 -0.406297 -0.236578 -0.0296996 0.169386 0.0375544 -0.231868 -0.0555787 0.503545 -0.191404 -0.516312 -0.0401911 0.0305339 0.14543 0.168395 -0.11969 -0.440203 -0.0449293 -0.00849113 0.351993 -0.184679 -0.155634 -0.115482 0.037301 0.303643 -0.195892 -0.224244 -0.249669 -0.0326422 -0.0554948 0.0710175 -0.207985 -0.127425 -0.0528274 0.0572255 0.0731846 -0.0336337 0.096933 -0.0663588 0.264075 -0.334243 -0.453593 -0.265528 0.257417 -0.062034 0.22643 -0.413151 0.418963 0.334976
这里 0.128002 0.109819 -0.444193 0.128262 0.22212 0.243265 0.062531 -0.0503796 -0.175642 0.140397 -0.00111336 0.0584181 0.231455 0.252942 0.0679624 -0.0696876 0.111237 0.101007 0.00079335 0.165582 -0.125966 0.0201291 0.12149 0.233926 -0.025733 0.0880477 -0.00550145 -0.291475 0.231547 0.259547 0.0309262 0.103109 0.0159246 -0.172742 0.077285 -0.0601756 -0.179434 -0.0230157 0.095024 -0.230936 0.157242 0.394413 0.045835 -0.187401 0.0334274 -0.132541 0.184748 -0.0980641 -0.0399213 0.128409 0.221413 0.0366654 -0.0929693 -0.0456782 -0.169971 0.154415 0.215874 -0.105124 0.0868691 0.139248 -0.149949 -0.346987 -0.0208022 -0.104099 0.13059 0.159948 -0.0269808 -0.187489 0.00529558 0.0484759 0.224745 -0.0199556 0.0735379 -0.22364 -0.104896 -0.0259154 -0.0759273 -0.172048 -0.0489586 -0.124452 0.0857538 0.0707671 -0.101795 -0.0581976 0.112565 0.0662849 0.121678 -0.229359 -0.25264 0.153959 0.2391 -0.369336 -0.130792 -0.198915 0.0415177 -0.208697 0.132315 -0.1979 0.179194 0.0979281
》 0.0977837 0.148854 -0.309177 0.0540513 0.239587 0.33199 0.0679982 -0.0533163 -0.107558 0.11332 0.0729771 0.00965029 0.191475 0.289076 0.03675 -0.159292 0.187677 0.119502 -0.00374931 0.104693 -0.177215 0.0132876 0.0652566 0.209128 -0.0800442 0.0447523 -0.014658 -0.208828 0.255561 0.255765 -0.0264955 0.0216672 0.0744252 -0.229255 0.0761983 -0.0341705 -0.12856 0.0311831 0.122959 -0.18308 0.124401 0.387738 0.00746434 -0.1846 0.0627603 -0.205738 0.135157 -0.0441222 -0.0243462 0.0620244 0.204969 0.0298001 -0.224473 -0.0449763 -0.126791 0.156069 0.171211 -0.0833038 0.0696203 0.177411 -0.107789 -0.324124 -0.0769431 -0.0291387 0.170689 0.171548 0.0303266 -0.124326 0.0410683 0.0328484 0.256023 -0.0342793 -0.00683255 -0.2416 -0.0487195 0.0742273 -0.0976609 -0.222059 -0.0717972 -0.0894982 0.0880091 0.0272492 -0.102973 -0.0719882 0.112846 0.070344 0.190537 -0.169057 -0.159122 0.2047 0.324671 -0.292273 -0.13252 -0.233592 0.131734 -0.139204 0.184204 -0.167498 0.22617 0.174152
中 0.00893431 0.125837 -0.3332 -0.0178296 0.0999134 0.151603 0.119278 0.00520994 -0.170556 0.081219 -0.0479406 -0.0440611 0.163401 0.306892 0.0104594 -0.0906545 0.125467 0.0361404 -0.043457 0.121993 -0.192131 0.00466876 0.143575 0.298128 -0.163197 0.0610162 -0.0600931 -0.279902 0.146894 0.252987 -0.0838379 -0.0948509 -0.0921554 -0.0882694 0.0132564 -0.0755018 -0.139562 -0.10919 -0.0317619 -0.0306268 0.0544539 0.172967 0.058593 -0.0979618 0.0390211 -0.104373 0.232842 0.0589181 -0.217072 0.0945618 0.219923 0.0484707 -0.215538 -0.0389843 -0.125369 0.120277 0.225263 -0.0931047 0.0609144 0.130052 -0.104418 -0.36647 -0.0938889 -0.124627 0.156103 0.219077 0.0387679 -0.114738 -0.0250376 0.0441266 0.349304 -0.0563261 0.147585 -0.13643 -0.12019 -0.0128514 -0.175664 -0.0703571 -0.165605 -0.323245 -0.0102146 0.0233227 -0.00236593 -0.0384522 0.137214 0.0541478 0.357867 -0.188863 -0.266495 0.188259 0.292262 -0.237657 -0.0879412 -0.223107 0.263766 -0.129446 0.272219 -0.208654 0.0668227 0.0576133
“ 0.0240971 0.121655 -0.430574 0.231909 0.21182 0.21736 0.0254009 -0.0388323 -0.151621 0.144948 -0.0988326 0.0468985 0.27227 0.15498 0.0313135 -0.0710284 0.203136 0.0791153 0.0494667 0.0608087 -0.0479816 -0.045004 0.169174 0.252476 -0.132397 0.0391409 -0.0429951 -0.235513 0.0532392 0.189842 -0.0730453 0.0845026 -0.0682052 -0.226072 -0.0441782 -0.0683116 -0.104991 -0.20532 0.0641969 -0.207332 0.226075 0.345243 -0.0978028 -0.267145 0.0333803 -0.0898158 0.179933 0.0880671 -0.00441976 0.20858 0.272014 0.185634 -0.00374407 -0.00669641 -0.241169 0.0811538 0.211047 -0.10855 0.055521 0.0151681 -0.147336 -0.315101 -0.0357981 -0.179382 0.0997722 0.181059 0.0262722 0.0619256 -0.069597 0.0253106 0.144467 0.0854424 0.090219 -0.138591 -0.0628364 -0.120871 -0.0911129 -0.165059 -0.0597505 -0.103974 0.0498986 -0.0099396 0.0266064 -0.00282382 0.106459 0.00298158 0.289591 -0.249066 -0.385641 0.146765 0.165543 -0.348 -0.0474607 -0.213214 0.100109 -0.0212057 0.198967 -0.158135 0.101846 0.00463328
演技 0.0982066 0.125583 -0.119662 -0.279913 0.298845 0.325435 -0.0812446 -0.129546 -0.106162 -0.113596 0.0814064 -0.0120167 0.0910817 0.572434 -0.0452035 -0.296538 0.371307 0.0931639 -0.0287085 0.0558449 -0.291521 -0.077302 -0.134823 0.0442578 -0.126855 -0.0668958 -0.111974 0.0598381 0.224688 0.157674 0.0637166 -0.28665 0.0267923 -0.171442 0.156283 -0.0640556 -0.0360095 0.136037 0.0019159 0.0300546 -0.075179 0.21411 -0.0538224 0.0388549 -0.0220924 -0.36894 0.0925397 0.140767 -0.160163 0.022252 0.0904008 0.0514053 -0.63192 -0.119844 -0.202443 0.26254 0.0572123 0.0369989 0.0398888 0.15745 0.0049797 -0.228688 -0.197474 0.0163401 0.282726 0.190416 0.256513 -0.0981838 0.130839 -0.0772625 0.395102 -0.184775 0.0681613 -0.0748012 0.0803215 0.300959 -0.121567 -0.295969 -0.239016 -0.321292 0.122776 -0.112041 0.0610057 -0.0527758 0.054958 0.0639622 0.515057 -0.0927795 0.0233646 0.292647 0.514389 0.0878689 -0.243385 -0.247803 0.45271 -0.00488907 0.355749 -0.142389 0.135393 0.222068
” -0.0984499 0.0780885 -0.383463 0.158136 0.212216 0.235808 0.0566529 -0.337102 -0.0821598 0.0600779 0.147499 0.139245 0.17009 0.202083 -0.0471343 -0.188961 0.246498 0.198969 0.118137 -0.20833 -0.167747 -0.415354 0.0799352 0.134658 -0.205577 0.126382 -0.0358234 -0.153411 0.0962608 -0.0789668 -0.186906 -0.041635 -0.0825785 -0.225333 -0.0273594 -0.251531 0.0999551 -0.0627969 0.0241197 -0.264213 -0.0356276 0.145582 0.0663573 -0.309294 0.0537956 -0.0650064 0.0890996 0.321938 0.0257715 0.237918 0.329987 0.239546 -0.225168 -0.315487 -0.0427948 0.211544 0.292098 -0.100422 0.0309184 0.0559402 0.000617506 -0.308459 0.0874399 -0.0619361 -0.0151362 0.278864 0.11672 0.205125 -0.178949 -0.0415085 0.229581 -0.0655335 0.152385 0.135234 -0.0155115 -0.0559952 -0.0606361 -0.00885438 -0.138941 -0.0241796 -0.0655991 0.259367 0.202476 -0.0740345 -0.100148 0.0066396 0.188918 -0.10785 -0.300644 0.0955192 0.0761049 -0.195305 0.0109513 -0.383911 -0.00297782 0.0790422 0.26666 -0.314202 -0.100267 -0.00595748
东北 0.248613 0.0487425 -0.812275 0.133173 0.15335 0.00300749 0.13389 6.55178e-05 -0.237631 0.170478 -0.00967744 0.159127 0.288663 0.242923 0.126977 -0.00823434 -0.0052621 0.115397 0.0144764 0.271815 -0.26515 -0.0657685 0.189877 0.257926 -0.0111709 0.250502 0.0107515 -0.368124 0.132759 0.315691 0.203123 0.159436 -0.108657 -0.0299007 0.111812 -0.0921482 -0.19024 -0.0645249 0.131226 -0.268479 0.0851308 0.454162 0.131062 -0.0954771 -0.0137712 -0.119153 0.367349 -0.0898802 -0.14358 0.297134 0.227703 0.00508572 -0.0225329 -0.0703783 -0.12471 0.195194 0.267341 -0.130387 0.0312404 0.09278 -0.13025 -0.413906 0.017683 -0.205914 0.146394 0.0968125 -0.114839 -0.474241 -0.0958828 0.064439 0.244704 -0.0379357 0.0719892 -0.198543 -0.20737 -0.171191 -0.0502546 -0.131675 -0.0811184 -0.283954 0.133135 0.184114 -0.0422659 -0.101958 0.0962579 0.0350348 -0.0304821 -0.325914 -0.33584 0.163289 0.230504 -0.392165 -0.116559 -0.217071 -0.0250602 -0.407116 0.0859515 -0.325682 0.0981648 0.0878629
比较 0.0986448 0.107652 -0.354045 0.155549 0.216365 0.237168 0.0598758 -0.0731851 -0.11083 0.047525 -0.0256877 0.0311448 0.138497 0.290724 -0.0750798 -0.0278863 0.201369 0.0385934 0.0808932 0.0780713 -0.12456 0.0173643 0.0627985 0.164637 -0.141081 0.0920151 -0.0704318 -0.136876 0.106509 0.20593 -0.0744912 -0.0101244 0.0615864 -0.24408 0.096703 0.0182353 -0.216381 -0.0198583 0.035287 -0.222141 0.0623807 0.418951 -0.0547871 -0.238441 0.0439511 -0.253881 0.0843087 0.161917 -0.0478183 0.230095 0.203914 0.143743 -0.171507 0.0580787 -0.128103 0.186598 0.233999 -0.175288 0.035335 0.0759653 -0.0655647 -0.36003 0.00932826 0.0375878 0.0784394 0.178326 0.0653486 0.168295 0.00974329 0.0442079 0.186084 0.0569526 0.0674665 -0.0914052 -0.174855 0.00488788 -0.071935 -0.150526 -0.132426 -0.195432 0.113579 -0.0255966 0.081335 -0.0128218 0.105494 0.0566839 0.220334 -0.147234 -0.172488 0.213366 0.242842 -0.160706 -0.0116854 -0.260904 0.0968774 -0.0277789 0.188979 -0.0953926 0.151415 0.127127
印象 0.0746468 0.0865797 -0.504983 0.0720861 0.151009 0.0839574 0.0407765 -0.0558298 -0.155416 0.0772989 0.00197022 0.0172001 0.251555 0.265203 0.0262747 -0.0359742 0.125751 0.0734934 0.0142609 0.102263 -0.159711 -0.0932762 0.136433 0.231815 -0.101162 0.129321 0.00468265 -0.274541 0.0700797 0.247873 0.0412139 0.00774984 -0.0562638 -0.108058 0.0540844 -0.0814526 -0.109319 -0.115607 0.0747323 -0.131147 0.0339833 0.301035 0.000975866 -0.167734 0.00283324 -0.16852 0.226367 0.10633 -0.0666143 0.225703 0.243909 0.0762111 -0.133675 -0.0992394 -0.11255 0.182932 0.235164 -0.104581 0.0562917 0.0727869 -0.135711 -0.372706 -0.0188711 -0.148007 0.0852309 0.197731 0.0499221 -0.1329 -0.0804322 0.047125 0.245269 -0.0124076 0.138785 -0.144211 -0.125441 -0.10389 -0.0916381 -0.0731822 -0.0846651 -0.221294 0.0422952 0.0881833 0.0553105 -0.0358136 0.0771029 0.00672471 0.233765 -0.211339 -0.307004 0.188283 0.247441 -0.229202 -0.0975506 -0.188962 0.105952 -0.184073 0.226861 -0.226059 0.042358 0.0737128
记忆 -0.0548308 0.0668329 -0.394737 -0.165723 -0.0751844 -0.0729615 0.0279375 0.0174646 -0.160645 -0.106708 -0.108483 0.0186248 0.293351 0.428847 -0.0431068 -0.180085 0.170862 0.0223851 -0.0759992 0.0596048 -0.176619 -0.155219 0.188488 0.415456 -0.161989 -0.046018 -0.115288 -0.179173 -0.144888 0.154492 -0.135327 -0.195428 -0.30863 0.107438 -0.118341 -0.0752487 -0.0240809 -0.168509 -0.123513 0.00711728 -0.0187065 -0.0646738 0.0805498 -0.118519 0.0230898 -0.124428 0.292953 0.213673 -0.245783 0.228151 0.201237 0.137576 -0.322622 -0.197309 -0.124195 0.0394737 0.267395 -0.0904286 0.0932292 -0.0647629 -0.0773161 -0.366886 -0.26264 -0.147975 0.160567 0.340781 0.226887 -0.0870178 -0.078062 0.00532796 0.486321 -0.145302 0.310945 0.0987305 -0.0176892 -0.191481 -0.192865 -0.0857095 -0.258601 -0.388681 -0.0146099 0.00360816 0.219992 -0.00144749 0.204774 0.0405708 0.62297 -0.14731 -0.382048 0.0790485 0.274634 -0.268625 -0.0183672 -0.225979 0.44462 -0.0629035 0.5191 -0.208184 -0.278891 -0.0232358
深刻 -0.0284286 -0.054626 -0.59821 0.412842 0.321848 0.180756 -0.0947305 -0.535558 -0.00946119 0.127917 0.250102 0.296164 0.112639 0.175081 0.0452373 -0.212939 0.283956 0.215715 0.0513257 -0.157109 -0.241639 -0.534018 0.116759 0.103412 -0.247876 0.294817 -0.111834 -0.221846 -0.136518 -0.302951 -0.160317 0.0204158 -0.278943 -0.0927004 0.0911294 -0.448997 0.222548 -0.275316 0.000792401 -0.260079 -0.0962403 0.335009 0.0524499 -0.321921 -0.0161454 -0.000679548 0.118579 0.419885 0.0363572 0.347831 0.522801 0.418826 -0.267266 -0.417971 -0.119358 0.125876 0.296159 -0.111004 -0.140642 -0.0507749 -0.00824505 -0.246767 0.147609 -0.150583 -0.13727 0.18721 -0.110384 0.121751 -0.350107 -0.0430894 0.0673923 -0.119472 0.231592 0.30976 -0.0124384 -0.128303 -0.0114981 0.0052827 -0.163352 -0.0820787 -0.172776 0.257032 0.243003 -0.118086 -0.292581 -0.040215 0.0785317 -0.273454 -0.4289 -0.028112 -0.14747 -0.144083 -0.0586989 -0.400621 -0.121514 0.193764 0.30503 -0.537499 -0.175774 -0.0829152
次 -0.121362 0.172955 -0.257677 -0.0428603 -0.000335987 0.323429 0.429486 0.0659951 -0.129354 0.182511 0.102541 -0.0640009 -0.0154817 0.254798 -0.0117904 -0.38235 0.170245 0.122496 -0.0175062 0.0613935 -0.431779 0.139168 -0.00934337 0.182711 -0.105578 0.306601 0.0753637 -0.226947 0.440143 0.187712 -0.198234 -0.0378991 0.205533 -0.140641 0.100802 -0.0138089 -0.139034 0.0947622 0.00188961 -0.357596 0.117391 0.321696 0.292284 -0.321084 0.222526 0.0405991 0.120448 -0.0776963 0.0534451 -0.0848205 0.131243 -0.163864 -0.378448 -0.177168 0.00389459 0.0717931 0.332606 -0.0970182 0.044437 0.335543 -0.139526 -0.352865 -0.120501 0.180396 0.234564 0.27688 0.0156388 -0.0995077 0.27962 0.178957 0.412998 -0.121494 0.0609109 -0.222052 0.0470208 0.0715291 -0.288297 -0.141078 -0.224507 -0.0512326 0.00380245 0.18991 -0.216659 -0.0736295 0.291242 0.130368 -0.0067071 -0.20615 -0.148814 0.166466 0.23781 -0.369743 -0.0772371 -0.46042 0.0276417 -0.072242 0.23737 -0.303744 0.131034 0.167626
跟 0.118543 0.121163 -0.374168 0.247928 0.231991 0.11816 0.0632369 -0.0675491 -0.120877 0.076564 0.0212715 0.0777161 0.393132 0.149201 0.0629147 -0.131904 0.246493 0.0519617 0.0509515 0.111784 -0.079577 -0.121649 0.190389 0.315353 -0.0292469 -0.0442495 0.0112664 -0.312164 0.0705848 0.222354 -0.0348597 0.114022 -0.0421846 -0.205411 -0.0192318 -0.131721 -0.0805706 -0.206756 0.0854724 -0.15145 0.167974 0.301038 -0.0271671 -0.266849 0.0424682 -0.0791765 0.229663 0.0461131 0.0192133 0.226971 0.379552 0.104496 -0.0776492 -0.0959805 -0.192227 0.0664645 0.239724 0.00731001 0.110083 -0.0408995 -0.193395 -0.24269 -0.0469758 -0.244983 0.110457 0.201067 -0.0140975 -0.0471386 -0.0575205 0.0415762 0.178601 0.0168137 0.103565 -0.211274 -0.0511704 -0.118545 -0.105802 -0.119584 -0.0120864 -0.0301039 0.0108758 0.0581162 -0.0389597 -0.0595692 0.0949072 0.042577 0.293607 -0.291408 -0.407841 0.205864 0.220908 -0.382988 -0.00245645 -0.220526 0.0862613 -0.126319 0.161358 -0.169236 0.0301409 0.0255997
都 0.0497954 0.114282 -0.290898 0.117057 0.204599 0.173508 0.142849 -0.053291 -0.10538 0.015757 0.00861253 -0.0212076 0.206893 0.273353 -0.0540078 -0.104099 0.246733 0.0438948 0.0467604 0.098061 -0.12424 0.0243282 0.0762522 0.237454 -0.103746 0.0315061 -0.0108394 -0.192035 0.17991 0.195757 -0.0955936 -0.0193129 0.0458814 -0.22815 0.0796565 -0.0344445 -0.170736 -0.0627246 0.0491192 -0.132058 0.0744615 0.339801 -0.0372544 -0.237611 0.0613644 -0.171959 0.10827 0.0823275 -0.0354312 0.138262 0.209663 0.0778547 -0.197936 -0.0221495 -0.132822 0.160548 0.212832 -0.0542273 0.0635203 0.0882363 -0.110788 -0.296767 -0.0688458 -0.0103534 0.127126 0.245509 0.0607462 0.0397593 0.031887 0.0622688 0.226137 0.00870873 0.0666409 -0.194928 -0.0639703 0.0255751 -0.135968 -0.157621 -0.112273 -0.175502 0.0750946 0.00671595 -0.0247298 0.0184394 0.169358 0.066506 0.299387 -0.189426 -0.251809 0.265106 0.29103 -0.240329 -0.0455706 -0.280172 0.151539 -0.0676479 0.238809 -0.107609 0.150867 0.114749
真 0.139083 0.0449222 -0.69208 0.171903 0.250486 -0.186262 0.248392 -0.0873049 -0.141789 0.0863384 0.0736127 0.0825873 0.401549 0.197665 0.0295232 -0.104861 0.199 0.0169579 0.110218 0.129763 -0.246868 -0.201962 0.0877114 0.282964 0.0672388 0.242502 0.153744 -0.370757 0.0493487 0.114991 0.0259926 0.069038 -0.156693 0.0414364 0.177173 -0.185481 -0.0321418 -0.232925 0.0631893 -0.172706 -0.0749662 0.315438 0.111982 -0.243791 0.00448902 0.0324149 0.341186 0.209955 0.107056 0.319398 0.37789 0.0365387 -0.185748 -0.20997 -0.084753 0.104134 0.303418 0.0384367 0.0259578 -0.0576154 -0.0894023 -0.256459 0.0142731 -0.268414 0.0704844 0.248225 -0.0657183 -0.249097 -0.0887123 0.0816175 0.266073 -0.0660871 0.203657 -0.128899 -0.0420086 -0.255904 -0.109871 0.0388979 -0.0174895 -0.173984 -0.0120027 0.21363 0.0524945 -0.0898282 0.126528 0.0285009 0.167815 -0.401958 -0.557546 0.329017 0.133281 -0.24136 -0.0251912 -0.364484 0.0107164 -0.250375 0.256757 -0.375205 -0.152936 -0.00902448
有用 0.126909 0.131283 -0.737828 -0.184047 -0.0142374 0.0429945 0.110874 0.0416602 -0.29942 0.0828875 0.00790957 0.182357 0.223387 0.308945 0.137021 -0.210767 -0.0168757 0.0689569 -0.101648 0.309083 -0.485041 -0.103986 0.216494 0.395705 -0.0593481 0.193505 -0.130771 -0.290462 0.0608012 0.355862 0.185344 -0.0750891 -0.205874 0.110413 -0.00985976 -0.0117528 -0.118229 0.0187957 0.0808973 -0.26166 -0.0311521 0.139461 0.286162 -0.0365921 -0.0108911 -0.110172 0.580293 -0.0886783 -0.340618 0.267803 0.105123 -0.0549366 -0.230093 -0.140452 -0.0648329 0.201568 0.204967 -0.0996162 0.0512873 0.0697991 -0.115399 -0.434814 -0.129718 -0.122361 0.27529 0.0994557 -0.0040371 -0.48088 -0.0627146 0.0833283 0.431547 -0.132928 0.150644 -0.149572 -0.140533 -0.127891 -0.12679 -0.178443 -0.227276 -0.486104 0.102314 0.20806 0.0154277 -0.152316 0.160107 0.0763387 0.124772 -0.211549 -0.244423 0.0711875 0.414955 -0.464518 -0.0593432 -0.248284 0.225226 -0.393608 0.287099 -0.362421 -0.110143 0.0805099
女朋友 -0.0310167 0.00655221 -0.44084 0.170453 0.201338 0.0462585 0.0156657 -0.194725 -0.0293932 0.0100274 0.0688715 0.0113911 0.203532 0.335768 -0.072259 -0.0300605 0.308837 0.112491 0.0649043 -0.066717 -0.148857 -0.236308 0.0701098 0.0718875 -0.138494 0.189469 0.0810014 -0.116891 -0.0999119 -0.0489931 -0.0793568 -0.0775069 -0.124247 -0.0931226 0.174919 -0.148185 -0.00208626 -0.161966 0.0218181 -0.143512 -0.0475728 0.337062 -0.0803491 -0.26194 0.0254813 -0.153651 0.1117 0.394402 0.127331 0.298872 0.294106 0.176885 -0.266237 -0.167609 -0.139349 0.112148 0.205881 -0.145835 -0.0630377 -0.0246585 -0.0584525 -0.270377 0.0136581 -0.0794412 0.0219652 0.248709 0.101258 0.153359 -0.167671 0.0805296 0.160943 0.00988422 0.220109 0.120427 -0.0389504 -0.0983885 -0.047615 -0.0282188 -0.0588151 -0.14138 -0.0534441 0.0409194 0.139353 0.0294076 0.019915 -0.0186926 0.321885 -0.210137 -0.358735 0.214305 0.0741652 -0.0739486 -0.151046 -0.270309 0.135093 0.0342229 0.352296 -0.264209 -0.0985502 -0.0115952
作 -0.00405171 0.162185 -0.221765 0.0801303 0.0906751 0.406213 0.016951 -0.0850585 -0.135154 0.0788278 0.0455207 0.025997 0.139534 0.288737 -0.0196873 -0.0940035 0.105255 0.143323 -0.0571504 0.00578968 -0.122225 0.0393061 0.123514 0.21874 -0.222878 0.0411968 -0.133394 -0.197632 0.148781 0.175803 -0.133758 -0.0153553 0.036889 -0.224849 -0.000561036 0.0132289 -0.157857 -0.010017 0.0797707 -0.115022 0.120334 0.313961 -0.0432827 -0.229669 0.0941244 -0.243861 0.0643884 0.00620123 -0.103983 0.113948 0.210866 0.080985 -0.187862 -0.0524669 -0.12855 0.139929 0.242739 -0.20945 0.10274 0.15147 -0.135418 -0.407164 -0.102509 0.0950321 0.0766351 0.181649 0.0951345 0.0404651 0.00209193 0.088044 0.23997 0.0581934 0.0306057 -0.0915589 -0.117738 0.0355651 -0.081107 -0.21053 -0.154959 -0.144468 0.0917155 -0.0301265 -0.0221939 -0.022323 0.0751357 0.0709247 0.237299 -0.0775585 -0.0954687 0.0644819 0.315061 -0.284621 -0.109941 -0.19917 0.138586 -0.0297709 0.20527 -0.124752 0.251992 0.104348
种 -0.03047 0.0894293 -0.322165 0.230534 0.17437 0.35428 -0.0380422 -0.152722 -0.0882273 0.119327 0.0101526 0.0742423 0.060145 0.225501 -0.016413 -0.140213 0.186181 0.142165 -0.0299504 0.0313718 -0.137251 -0.0929159 0.153941 0.157733 -0.230398 0.139544 -0.147295 -0.157585 0.0304108 0.151444 -0.129091 -0.0300872 -0.0406287 -0.218868 -0.00585056 -0.0974936 -0.0875139 -0.14286 0.0489214 -0.194709 0.120802 0.355168 -0.0572165 -0.253563 0.0393264 -0.130097 0.112759 0.127803 -0.132763 0.201689 0.234619 0.208039 -0.14219 -0.0382721 -0.144318 0.118059 0.193441 -0.207428 -0.051982 0.074101 -0.107902 -0.335717 0.0143953 -0.0334496 0.0583792 0.140452 0.0128507 0.136955 -0.082479 0.0211478 0.115953 0.0322684 0.0933705 -0.0321907 -0.0935045 -0.000653762 -0.129402 -0.120144 -0.177336 -0.141597 -0.0143563 0.0242865 0.0582907 -0.00236459 0.0161076 -0.02338 0.242011 -0.159761 -0.187092 0.0769297 0.129261 -0.262953 -0.130891 -0.213612 0.110177 0.0484694 0.233425 -0.212942 0.102187 0.0447296
